{"learner":{"attributes":{"best_iteration":"787","best_ntree_limit":"788","best_score":"39759.81366397241"},"feature_names":["id","superficie_interior_m2","superficie_exterior_m2","numero_habitacions","numero_banos","ano_construccion","lonxitude","latitude","temperatura_media_mes_construccion","tipo_edificacion","calidade_materiais","cor_favorita_propietario","distancia_centro_km","distancia_escola_km","indice_criminalidade","acceso_transporte_publico","orientacion","eficiencia_enerxetica","numero_arboles_xardin"],"feature_types":["int","float","float","int","int","int","float","float","float","int","int","int","float","float","float","int","int","int","int"],"gradient_booster":{"model":{"gbtree_model_param":{"num_parallel_tree":"1","num_trees":"800","size_leaf_vector":"0"},"tree_info":[0,0,0,0,0,0,0,0,0,0,0,0,0,0,0,0,0,0,0,0,0,0,0,0,0,0,0,0,0,0,0,0,0,0,0,0,0,0,0,0,0,0,0,0,0,0,0,0,0,0,0,0,0,0,0,0,0,0,0,0,0,0,0,0,0,0,0,0,0,0,0,0,0,0,0,0,0,0,0,0,0,0,0,0,0,0,0,0,0,0,0,0,0,0,0,0,0,0,0,0,0,0,0,0,0,0,0,0,0,0,0,0,0,0,0,0,0,0,0,0,0,0,0,0,0,0,0,0,0,0,0,0,0,0,0,0,0,0,0,0,0,0,0,0,0,0,0,0,0,0,0,0,0,0,0,0,0,0,0,0,0,0,0,0,0,0,0,0,0,0,0,0,0,0,0,0,0,0,0,0,0,0,0,0,0,0,0,0,0,0,0,0,0,0,0,0,0,0,0,0,0,0,0,0,0,0,0,0,0,0,0,0,0,0,0,0,0,0,0,0,0,0,0,0,0,0,0,0,0,0,0,0,0,0,0,0,0,0,0,0,0,0,0,0,0,0,0,0,0,0,0,0,0,0,0,0,0,0,0,0,0,0,0,0,0,0,0,0,0,0,0,0,0,0,0,0,0,0,0,0,0,0,0,0,0,0,0,0,0,0,0,0,0,0,0,0,0,0,0,0,0,0,0,0,0,0,0,0,0,0,0,0,0,0,0,0,0,0,0,0,0,0,0,0,0,0,0,0,0,0,0,0,0,0,0,0,0,0,0,0,0,0,0,0,0,0,0,0,0,0,0,0,0,0,0,0,0,0,0,0,0,0,0,0,0,0,0,0,0,0,0,0,0,0,0,0,0,0,0,0,0,0,0,0,0,0,0,0,0,0,0,0,0,0,0,0,0,0,0,0,0,0,0,0,0,0,0,0,0,0,0,0,0,0,0,0,0,0,0,0,0,0,0,0,0,0,0,0,0,0,0,0,0,0,0,0,0,0,0,0,0,0,0,0,0,0,0,0,0,0,0,0,0,0,0,0,0,0,0,0,0,0,0,0,0,0,0,0,0,0,0,0,0,0,0,0,0,0,0,0,0,0,0,0,0,0,0,0,0,0,0,0,0,0,0,0,0,0,0,0,0,0,0,0,0,0,0,0,0,0,0,0,0,0,0,0,0,0,0,0,0,0,0,0,0,0,0,0,0,0,0,0,0,0,0,0,0,0,0,0,0,0,0,0,0,0,0,0,0,0,0,0,0,0,0,0,0,0,0,0,0,0,0,0,0,0,0,0,0,0,0,0,0,0,0,0,0,0,0,0,0,0,0,0,0,0,0,0,0,0,0,0,0,0,0,0,0,0,0,0,0,0,0,0,0,0,0,0,0,0,0,0,0,0,0,0,0,0,0,0,0,0,0,0,0,0,0,0,0,0,0,0,0,0,0,0,0,0,0,0,0,0,0,0,0,0,0,0,0,0,0,0,0,0,0,0,0,0,0,0,0,0,0,0,0,0,0,0,0,0,0,0,0,0,0,0,0,0,0,0,0,0,0,0,0,0,0,0,0,0,0,0,0,0,0,0,0,0,0,0,0,0,0,0,0,0,0,0,0,0,0,0,0,0,0,0,0,0,0,0,0,0,0,0,0,0,0,0,0,0,0,0,0,0,0,0,0,0,0,0,0,0,0,0,0,0,0,0,0,0,0,0,0,0,0,0,0,0,0,0,0,0,0,0,0,0,0,0,0,0,0,0,0,0,0,0,0,0,0,0,0,0,0,0,0,0,0,0,0,0,0,0,0,0,0,0,0,0,0,0],"trees":[{"base_weights":[2.2331861E5,1.03294484E5,3.4214866E5,7.920292E4,1.2975522E5,4.09943E5,2.4022375E5,6.941821E4,9.390728E4,1.26220164E5,1.3461068E4,3.487446E5,4.812315E5,1.8629439E5,3.1124928E5,6.4729633E4,7.74132E4,1.041928E5,8.941958E4,1.1759988E5,1.4255016E5,2.980237E5,3.8226138E5,4.341408E5,5.0392388E5,1.4216798E5,2.133024E5,2.829905E5,3.3708975E5,2.294535E3,2.5156477E3,3.1287764E3,2.7652249E3,3.6333662E3,4.3409536E3,2.916184E3,3.4808054E3,4.5850366E3,4.0050059E3,5.890047E3,5.0341123E3,7.2528594E3,1.1409935E4,1.578999E4,1.3541539E4,1.7986756E4,1.5598717E4,2.049197E4,1.796562E4,4.3340557E3,5.682582E3,8.834623E3,7.5234673E3,1.1275736E4,9.838649E3,1.3723228E4,1.2015357E4],"categories":[],"categories_nodes":[],"categories_segments":[],"categories_sizes":[],"default_left":[0,0,0,0,0,0,0,0,0,0,0,0,0,0,0,0,0,0,0,0,0,0,0,0,0,0,0,0,0,0,0,0,0,0,0,0,0,0,0,0,0,0,0,0,0,0,0,0,0,0,0,0,0,0,0,0,0],"id":0,"left_children":[1,3,5,7,9,11,13,15,17,19,-1,21,23,25,27,29,31,33,35,37,39,41,43,45,47,49,51,53,55,-1,-1,-1,-1,-1,-1,-1,-1,-1,-1,-1,-1,-1,-1,-1,-1,-1,-1,-1,-1,-1,-1,-1,-1,-1,-1,-1,-1],"loss_changes":[2.1991501E14,4.885114E12,5.3484624E13,5.742296E11,2.9695337E12,2.0199835E13,1.1827132E13,8.758021E10,6.856953E10,4.971886E11,0E0,4.1928612E12,2.1669452E12,2.0816624E12,9.194837E11,1.0997989E10,1.4823719E10,3.2910606E10,4.6467645E10,1.2389764E11,1.2988711E11,8.4059724E11,1.0771476E12,4.0203243E11,1.2785581E12,1.706117E11,2.6556655E11,1.9198588E11,2.4423432E11,0E0,0E0,0E0,0E0,0E0,0E0,0E0,0E0,0E0,0E0,0E0,0E0,0E0,0E0,0E0,0E0,0E0,0E0,0E0,0E0,0E0,0E0,0E0,0E0,0E0,0E0,0E0,0E0],"parents":[2147483647,0,0,1,1,2,2,3,3,4,4,5,5,6,6,7,7,8,8,9,9,11,11,12,12,13,13,14,14,15,15,16,16,17,17,18,18,19,19,20,20,21,21,22,22,23,23,24,24,25,25,26,26,27,27,28,28],"right_children":[2,4,6,8,10,12,14,16,18,20,-1,22,24,26,28,30,32,34,36,38,40,42,44,46,48,50,52,54,56,-1,-1,-1,-1,-1,-1,-1,-1,-1,-1,-1,-1,-1,-1,-1,-1,-1,-1,-1,-1,-1,-1,-1,-1,-1,-1,-1,-1],"split_conditions":[1E0,9.545E1,2E0,6.708E1,3.153E1,1.9299E2,1.9654E2,4.922E1,1E0,1.3321E2,1.3461068E4,1.2568E2,2.2724E2,1.2568E2,2.4607E2,3.005E1,1E0,1.996E3,2E0,-7.67E0,1E0,5.577E1,1E0,2E0,1E0,8.293E1,1E0,-8.03E0,1E0,2.294535E3,2.5156477E3,3.1287764E3,2.7652249E3,3.6333662E3,4.3409536E3,2.916184E3,3.4808054E3,4.5850366E3,4.0050059E3,5.890047E3,5.0341123E3,7.2528594E3,1.1409935E4,1.578999E4,1.3541539E4,1.7986756E4,1.5598717E4,2.049197E4,1.796562E4,4.3340557E3,5.682582E3,8.834623E3,7.5234673E3,1.1275736E4,9.838649E3,1.3723228E4,1.2015357E4],"split_indices":[9,1,9,1,12,1,1,1,10,1,0,1,1,1,1,1,10,5,10,6,10,1,10,17,10,1,10,6,10,0,0,0,0,0,0,0,0,0,0,0,0,0,0,0,0,0,0,0,0,0,0,0,0,0,0,0,0],"split_type":[0,0,0,0,0,0,0,0,0,0,0,0,0,0,0,0,0,0,0,0,0,0,0,0,0,0,0,0,0,0,0,0,0,0,0,0,0,0,0,0,0,0,0,0,0,0,0,0,0,0,0,0,0,0,0,0,0],"sum_hessian":[1.542E4,7.672E3,7.748E3,4.017E3,3.655E3,4.652E3,3.096E3,2.414E3,1.603E3,3.601E3,5.4E1,2.505E3,2.147E3,1.761E3,1.335E3,1.525E3,8.89E2,4.83E2,1.12E3,2.36E3,1.241E3,9.99E2,1.506E3,7.02E2,1.445E3,6.7E2,1.091E3,6.41E2,6.94E2,7.38E2,7.87E2,2.8E2,6.09E2,3.19E2,1.64E2,3.05E2,8.15E2,1.512E3,8.48E2,3.91E2,8.5E2,7.7E1,9.22E2,4.57E2,1.049E3,1.61E2,5.41E2,4.49E2,9.96E2,1.96E2,4.74E2,3.43E2,7.48E2,3.06E2,3.35E2,2.12E2,4.82E2],"tree_param":{"num_deleted":"0","num_feature":"19","num_nodes":"57","size_leaf_vector":"0"}},{"base_weights":[2.1516088E5,1.4840112E5,4.3346834E5,1.00023516E5,2.4608042E5,3.5821103E5,4.9682625E5,9.6412375E4,1.7798228E5,2.8703188E5,2.3081161E5,3.063364E5,3.795168E5,4.6256925E5,5.4179706E5,1.0634263E5,9.21137E4,1.11314336E5,2.4716655E5,3.8680856E5,2.5459483E5,2.5346588E5,2.211672E5,3.1707116E5,2.6465988E5,4.171657E5,3.600262E5,5.0742803E5,4.434862E5,2.2507314E4,5.151462E5,3.603309E3,4.1320146E3,2.965916E3,3.6181895E3,3.2478877E3,4.8194546E3,1.0756072E4,8.231568E3,1.5604369E4,1.36311E4,8.822979E3,1.0164691E4,9.959434E3,8.619792E3,6.813741E3,8.796247E3,1.2445057E4,1.0735663E4,8.652971E3,1.0537443E4,1.5171071E4,1.7552426E4,1.1508551E4,1.4128115E4,1.7522113E4,1.976617E4,1.3797554E4,1.7425646E4,1.6477955E4,2.031267E4],"categories":[],"categories_nodes":[],"categories_segments":[],"categories_sizes":[],"default_left":[0,0,0,0,0,0,0,0,0,0,0,0,0,0,0,0,0,0,0,0,0,0,0,0,0,0,0,0,0,0,0,0,0,0,0,0,0,0,0,0,0,0,0,0,0,0,0,0,0,0,0,0,0,0,0,0,0,0,0,0,0],"id":1,"left_children":[1,3,5,7,9,11,13,15,17,19,21,23,25,27,29,31,33,35,37,39,41,43,45,47,49,51,53,55,57,-1,59,-1,-1,-1,-1,-1,-1,-1,-1,-1,-1,-1,-1,-1,-1,-1,-1,-1,-1,-1,-1,-1,-1,-1,-1,-1,-1,-1,-1,-1,-1],"loss_changes":[2.2442741E14,5.572554E13,1.7092628E13,2.2110357E12,2.403957E12,1.7562725E12,2.8676624E12,3.162002E11,1.5917111E12,3.368479E12,5.896017E11,1.6726884E11,7.6893336E11,8.225198E11,1.2287465E12,9.484789E10,3.2857758E11,7.140881E10,1.481984E11,8.294656E10,2.2200032E11,2.2490697E11,1.1300126E12,1.323219E11,2.2359835E10,9.384336E10,6.9891365E11,1.3812682E11,1.3095624E12,0E0,1.1766197E12,0E0,0E0,0E0,0E0,0E0,0E0,0E0,0E0,0E0,0E0,0E0,0E0,0E0,0E0,0E0,0E0,0E0,0E0,0E0,0E0,0E0,0E0,0E0,0E0,0E0,0E0,0E0,0E0,0E0,0E0],"parents":[2147483647,0,0,1,1,2,2,3,3,4,4,5,5,6,6,7,7,8,8,9,9,10,10,11,11,12,12,13,13,14,14,15,15,16,16,17,17,18,18,19,19,20,20,21,21,22,22,23,23,24,24,25,25,26,26,27,27,28,28,30,30],"right_children":[2,4,6,8,10,12,14,16,18,20,22,24,26,28,30,32,34,36,38,40,42,44,46,48,50,52,54,56,58,-1,60,-1,-1,-1,-1,-1,-1,-1,-1,-1,-1,-1,-1,-1,-1,-1,-1,-1,-1,-1,-1,-1,-1,-1,-1,-1,-1,-1,-1,-1,-1],"split_conditions":[6.4769E2,1E0,1.71834E3,1E0,2E0,9.646E2,2.43929E3,1E0,4.112E1,5.553E1,1E0,5E0,1E0,1E0,1E0,3E0,2E0,2E0,2E0,1E0,3.6404E2,4.6E-1,2E0,4.6E-1,2E0,4.351E1,2E0,1.99675E3,2E0,2.2507314E4,2E0,3.603309E3,4.1320146E3,2.965916E3,3.6181895E3,3.2478877E3,4.8194546E3,1.0756072E4,8.231568E3,1.5604369E4,1.36311E4,8.822979E3,1.0164691E4,9.959434E3,8.619792E3,6.813741E3,8.796247E3,1.2445057E4,1.0735663E4,8.652971E3,1.0537443E4,1.5171071E4,1.7552426E4,1.1508551E4,1.4128115E4,1.7522113E4,1.976617E4,1.3797554E4,1.7425646E4,1.6477955E4,2.031267E4],"split_indices":[2,18,2,9,9,2,2,10,2,2,10,17,10,10,10,3,10,9,9,10,2,14,10,14,4,7,10,2,10,0,10,0,0,0,0,0,0,0,0,0,0,0,0,0,0,0,0,0,0,0,0,0,0,0,0,0,0,0,0,0,0],"split_type":[0,0,0,0,0,0,0,0,0,0,0,0,0,0,0,0,0,0,0,0,0,0,0,0,0,0,0,0,0,0,0,0,0,0,0,0,0,0,0,0,0,0,0,0,0,0,0,0,0,0,0,0,0,0,0,0,0,0,0,0,0],"sum_hessian":[1.5401E4,1.1795E4,3.606E3,7.889E3,3.906E3,1.65E3,1.956E3,7.541E3,3.48E2,1.058E3,2.848E3,4.83E2,1.167E3,1.114E3,8.42E2,2.274E3,5.267E3,1.78E2,1.7E2,2.58E2,8E2,8.46E2,2.002E3,3.81E2,1.02E2,3.94E2,7.73E2,3.28E2,7.86E2,2.47E2,5.95E2,7.5E2,1.524E3,1.531E3,3.736E3,7.8E1,1E2,6.3E1,1.07E2,9.6E1,1.62E2,4.14E2,3.86E2,5.11E2,3.35E2,5.71E2,1.431E3,2.34E2,1.47E2,4E1,6.2E1,3.39E2,5.5E1,2.17E2,5.56E2,1.33E2,1.95E2,2.01E2,5.85E2,1.79E2,4.16E2],"tree_param":{"num_deleted":"0","num_feature":"19","num_nodes":"61","size_leaf_vector":"0"}},{"base_weights":[2.0727702E5,9.5414086E4,3.157673E5,9.274988E4,3.4741134E5,3.7940988E5,2.2114619E5,1.0179285E5,8.8805484E4,1.407998E4,1.1846843E4,4.184395E5,3.6230444E5,2.4256005E5,2.1186423E5,1.0766587E5,9.444733E4,7.675134E4,9.374168E4,3.216402E5,4.2465338E5,3.0785197E5,3.8374788E5,2.7062816E5,2.3145522E5,1.7425214E5,2.2731883E5,3.5933325E3,4.203602E3,3.3304363E3,3.7004128E3,2.5741162E3,3.0014607E3,3.2766792E3,3.7410156E3,1.0190634E4,1.36766455E4,1.6834465E4,1.5193129E4,1.2184721E4,1.0663075E4,1.5277799E4,1.3270611E4,1.0903059E4,9.162035E3,5.717333E3,8.794841E3,6.831412E3,5.5950337E3,6.3566064E3,8.590877E3],"categories":[],"categories_nodes":[],"categories_segments":[],"categories_sizes":[],"default_left":[0,0,0,0,0,0,0,0,0,0,0,0,0,0,0,0,0,0,0,0,0,0,0,0,0,0,0,0,0,0,0,0,0,0,0,0,0,0,0,0,0,0,0,0,0,0,0,0,0,0,0],"id":2,"left_children":[1,3,5,7,9,11,13,15,17,-1,-1,19,21,23,25,27,29,31,33,35,37,39,41,43,45,47,49,-1,-1,-1,-1,-1,-1,-1,-1,-1,-1,-1,-1,-1,-1,-1,-1,-1,-1,-1,-1,-1,-1,-1,-1],"loss_changes":[1.8797676E14,5.102098E12,4.7304904E13,2.6396852E11,1.145045E9,3.049494E12,5.987453E11,9.27822E10,3.0880144E11,0E0,0E0,7.794191E11,3.7521572E12,2.6027753E11,1.2623765E12,6.7846013E10,2.0026753E10,4.1894806E10,1.3889857E11,1.3529252E11,5.0252795E11,3.3177784E11,1.619102E12,1.0329103E11,2.3571988E11,1.2732858E11,2.8360206E11,0E0,0E0,0E0,0E0,0E0,0E0,0E0,0E0,0E0,0E0,0E0,0E0,0E0,0E0,0E0,0E0,0E0,0E0,0E0,0E0,0E0,0E0,0E0,0E0],"parents":[2147483647,0,0,1,1,2,2,3,3,4,4,5,5,6,6,7,7,8,8,11,11,12,12,13,13,14,14,15,15,16,16,17,17,18,18,19,19,20,20,21,21,22,22,23,23,24,24,25,25,26,26],"right_children":[2,4,6,8,10,12,14,16,18,-1,-1,20,22,24,26,28,30,32,34,36,38,40,42,44,46,48,50,-1,-1,-1,-1,-1,-1,-1,-1,-1,-1,-1,-1,-1,-1,-1,-1,-1,-1,-1,-1,-1,-1,-1,-1],"split_conditions":[1E0,1E0,2E0,1E0,2E0,1E0,1E0,-7.86E0,2E0,1.407998E4,1.1846843E4,1E0,2E0,-8.53E0,2E0,3E0,4E0,3E0,1.985E3,9.84E0,-8.33E0,-8.02E0,-7.98E0,4.1E-1,1E0,-7.39E0,1E0,3.5933325E3,4.203602E3,3.3304363E3,3.7004128E3,2.5741162E3,3.0014607E3,3.2766792E3,3.7410156E3,1.0190634E4,1.36766455E4,1.6834465E4,1.5193129E4,1.2184721E4,1.0663075E4,1.5277799E4,1.3270611E4,1.0903059E4,9.162035E3,5.717333E3,8.794841E3,6.831412E3,5.5950337E3,6.3566064E3,8.590877E3],"split_indices":[9,18,9,10,11,10,10,6,10,0,0,18,10,6,10,3,3,3,5,13,6,6,6,14,18,6,18,0,0,0,0,0,0,0,0,0,0,0,0,0,0,0,0,0,0,0,0,0,0,0,0],"split_type":[0,0,0,0,0,0,0,0,0,0,0,0,0,0,0,0,0,0,0,0,0,0,0,0,0,0,0,0,0,0,0,0,0,0,0,0,0,0,0,0,0,0,0,0,0,0,0,0,0,0,0],"sum_hessian":[1.549E4,7.627E3,7.863E3,7.548E3,7.9E1,4.7E3,3.163E3,2.288E3,5.26E3,3.5E1,4.4E1,1.428E3,3.272E3,9.52E2,2.211E3,1.267E3,1.021E3,1.531E3,3.729E3,8.8E1,1.34E3,9.27E2,2.345E3,2.66E2,6.86E2,6.46E2,1.565E3,4.1E2,8.57E2,5.15E2,5.06E2,5.21E2,1.01E3,2.024E3,1.705E3,4.5E1,4.3E1,4.96E2,8.44E2,4.81E2,4.46E2,1.181E3,1.164E3,1.36E2,1.3E2,4.1E1,6.45E2,4.63E2,1.83E2,9.2E1,1.473E3],"tree_param":{"num_deleted":"0","num_feature":"19","num_nodes":"51","size_leaf_vector":"0"}},{"base_weights":[1.9946239E5,1.3811255E5,4.05228E5,9.2626555E4,2.2829572E5,3.487157E5,4.8198853E5,9.04828E4,1.960375E5,2.6328212E5,2.199334E5,3.076311E5,3.843641E5,5.3771244E5,4.6016003E5,1.0024252E5,8.62416E4,8.604145E3,1.7432027E5,2.1481948E5,3.1313384E5,2.3188811E5,2.0255342E5,3.4902094E5,2.8819388E5,4.0977997E5,3.5634444E5,5.096774E5,2.1832877E4,3.965508E5,4.835723E5,4.014567E3,3.3820833E3,2.7950657E3,3.380572E3,7.1102017E3,5.411198E3,8.892566E3,7.1775034E3,1.2835434E4,1.0977017E4,9.461411E3,8.269061E3,7.3801504E3,8.520237E3,1.5008475E4,1.228934E4,9.434521E3,1.1223129E4,1.5725877E4,1.3138201E4,1.1953258E4,1.3794702E4,1.9438965E4,1.659899E4,1.3460897E4,1.5618036E4,1.9448443E4,1.6508438E4],"categories":[],"categories_nodes":[],"categories_segments":[],"categories_sizes":[],"default_left":[0,0,0,0,0,0,0,0,0,0,0,0,0,0,0,0,0,0,0,0,0,0,0,0,0,0,0,0,0,0,0,0,0,0,0,0,0,0,0,0,0,0,0,0,0,0,0,0,0,0,0,0,0,0,0,0,0,0,0],"id":3,"left_children":[1,3,5,7,9,11,13,15,17,19,21,23,25,27,29,31,33,-1,35,37,39,41,43,45,47,49,51,53,-1,55,57,-1,-1,-1,-1,-1,-1,-1,-1,-1,-1,-1,-1,-1,-1,-1,-1,-1,-1,-1,-1,-1,-1,-1,-1,-1,-1,-1,-1],"loss_changes":[1.954651E14,4.8927747E13,1.5329879E13,1.7479678E12,1.1362873E12,2.9341338E12,1.687855E12,3.166322E11,9.884769E10,1.8175136E12,6.439599E11,7.099447E11,6.948116E11,4.0054764E11,1.5060236E12,1.6204484E11,2.7259201E11,0E0,3.2840876E10,1.8045154E11,1.5880054E11,3.8205076E11,1.2295183E11,2.3164302E11,2.573625E11,3.2383382E11,1.9396559E11,8.07068E10,0E0,1.488894E11,1.09862244E12,0E0,0E0,0E0,0E0,0E0,0E0,0E0,0E0,0E0,0E0,0E0,0E0,0E0,0E0,0E0,0E0,0E0,0E0,0E0,0E0,0E0,0E0,0E0,0E0,0E0,0E0,0E0,0E0],"parents":[2147483647,0,0,1,1,2,2,3,3,4,4,5,5,6,6,7,7,8,8,9,9,10,10,11,11,12,12,13,13,14,14,15,15,16,16,18,18,19,19,20,20,21,21,22,22,23,23,24,24,25,25,26,26,27,27,29,29,30,30],"right_children":[2,4,6,8,10,12,14,16,18,20,22,24,26,28,30,32,34,-1,36,38,40,42,44,46,48,50,52,54,-1,56,58,-1,-1,-1,-1,-1,-1,-1,-1,-1,-1,-1,-1,-1,-1,-1,-1,-1,-1,-1,-1,-1,-1,-1,-1,-1,-1,-1,-1],"split_conditions":[6.8111E2,1E0,1.99675E3,8.381E1,4.211E1,1.30469E3,1E0,1E0,1E0,4.203E1,4.5E-1,1E0,-7.98E0,2.61802E3,2E0,-7.88E0,2E0,8.604145E3,2.135E1,-8.02E0,-8.42E0,1E0,3.6404E2,-8.57E0,2E0,5E0,4.238E1,-7.18E0,2.1832877E4,2.43929E3,-7.98E0,4.014567E3,3.3820833E3,2.7950657E3,3.380572E3,7.1102017E3,5.411198E3,8.892566E3,7.1775034E3,1.2835434E4,1.0977017E4,9.461411E3,8.269061E3,7.3801504E3,8.520237E3,1.5008475E4,1.228934E4,9.434521E3,1.1223129E4,1.5725877E4,1.3138201E4,1.1953258E4,1.3794702E4,1.9438965E4,1.659899E4,1.3460897E4,1.5618036E4,1.9448443E4,1.6508438E4],"split_indices":[2,18,2,2,2,2,10,10,10,2,14,10,6,2,10,6,10,0,8,6,6,10,2,6,10,17,7,6,0,2,6,0,0,0,0,0,0,0,0,0,0,0,0,0,0,0,0,0,0,0,0,0,0,0,0,0,0,0,0],"split_type":[0,0,0,0,0,0,0,0,0,0,0,0,0,0,0,0,0,0,0,0,0,0,0,0,0,0,0,0,0,0,0,0,0,0,0,0,0,0,0,0,0,0,0,0,0,0,0,0,0,0,0,0,0,0,0,0,0,0,0],"sum_hessian":[1.5486E4,1.193E4,3.556E3,7.931E3,3.999E3,2.05E3,1.506E3,7.771E3,1.6E2,7.68E2,3.231E3,9.55E2,1.095E3,4.2E2,1.086E3,2.35E3,5.421E3,5.9E1,1.01E2,3.91E2,3.77E2,1.91E3,1.321E3,3.02E2,6.53E2,5.7E2,5.25E2,2.71E2,1.49E2,2.95E2,7.91E2,1.295E3,1.055E3,1.579E3,3.842E3,6.2E1,3.9E1,1.84E2,2.07E2,1.34E2,2.43E2,5.77E2,1.333E3,1.14E3,1.81E2,7.5E1,2.27E2,1.84E2,4.69E2,4.63E2,1.07E2,1.55E2,3.7E2,2.23E2,4.8E1,1.21E2,1.74E2,3.98E2,3.93E2],"tree_param":{"num_deleted":"0","num_feature":"19","num_nodes":"59","size_leaf_vector":"0"}},{"base_weights":[1.9217973E5,1.3304483E5,3.9156847E5,8.89116E4,2.194615E5,3.313449E5,4.571973E5,8.692017E4,2.3072431E5,2.5272266E5,2.117168E5,2.9766628E5,3.6529066E5,4.2391312E5,4.9055966E5,8.606223E4,1.498371E5,1.0974498E4,7.213391E3,2.037135E5,3.0172975E5,2.2237469E5,1.9266917E5,3.3567556E5,2.8030347E5,3.8950356E5,3.3748044E5,4.6660862E5,4.0708878E5,5.466875E5,4.6774694E5,3.539245E3,3.0567375E3,7.428695E3,4.610836E3,8.830409E3,7.0216577E3,1.2350911E4,1.0500086E4,8.609198E3,7.4236255E3,7.3446963E3,5.903043E3,1.1018549E4,1.3168341E4,9.229655E3,1.0898011E4,1.3373145E4,1.5310905E4,1.3020157E4,1.0949669E4,1.7802057E4,1.5391248E4,1.29876455E4,1.58461045E4,2.0877994E4,1.7635791E4,1.4874304E4,1.84542E4],"categories":[],"categories_nodes":[],"categories_segments":[],"categories_sizes":[],"default_left":[0,0,0,0,0,0,0,0,0,0,0,0,0,0,0,0,0,0,0,0,0,0,0,0,0,0,0,0,0,0,0,0,0,0,0,0,0,0,0,0,0,0,0,0,0,0,0,0,0,0,0,0,0,0,0,0,0,0,0],"id":4,"left_children":[1,3,5,7,9,11,13,15,17,19,21,23,25,27,29,31,33,-1,-1,35,37,39,41,43,45,47,49,51,53,55,57,-1,-1,-1,-1,-1,-1,-1,-1,-1,-1,-1,-1,-1,-1,-1,-1,-1,-1,-1,-1,-1,-1,-1,-1,-1,-1,-1,-1],"loss_changes":[1.8161424E14,4.530694E13,1.3838016E13,2.209878E12,1.0033614E12,2.0395055E12,1.7489912E12,4.112599E11,2.2370687E11,1.7788085E12,6.3706445E11,5.564667E11,5.3829698E11,4.9774644E11,9.2291465E11,2.6783986E11,1.1932349E11,0E0,0E0,1.6568654E11,1.678141E11,3.9939E11,1.6734434E11,1.44995E11,2.1536912E11,2.3321169E11,1.6856908E11,2.9825696E10,5.7602893E11,9.1159E10,1.02858595E12,0E0,0E0,0E0,0E0,0E0,0E0,0E0,0E0,0E0,0E0,0E0,0E0,0E0,0E0,0E0,0E0,0E0,0E0,0E0,0E0,0E0,0E0,0E0,0E0,0E0,0E0,0E0,0E0],"parents":[2147483647,0,0,1,1,2,2,3,3,4,4,5,5,6,6,7,7,8,8,9,9,10,10,11,11,12,12,13,13,14,14,15,15,16,16,19,19,20,20,21,21,22,22,23,23,24,24,25,25,26,26,27,27,28,28,29,29,30,30],"right_children":[2,4,6,8,10,12,14,16,18,20,22,24,26,28,30,32,34,-1,-1,36,38,40,42,44,46,48,50,52,54,56,58,-1,-1,-1,-1,-1,-1,-1,-1,-1,-1,-1,-1,-1,-1,-1,-1,-1,-1,-1,-1,-1,-1,-1,-1,-1,-1,-1,-1],"split_conditions":[6.8111E2,1E0,1.8865E3,3.382E1,4.205E1,1.30469E3,2.43929E3,7.054E1,1E0,4.203E1,4.8E-1,1E0,-7.93E0,1E0,1E0,1E0,-8.55E0,1.0974498E4,7.213391E3,1E0,1E0,-7.45E0,-6.98E0,9.0029E2,2E0,1.55422E3,5E0,-7.18E0,2E0,-7.07E0,2E0,3.539245E3,3.0567375E3,7.428695E3,4.610836E3,8.830409E3,7.0216577E3,1.2350911E4,1.0500086E4,8.609198E3,7.4236255E3,7.3446963E3,5.903043E3,1.1018549E4,1.3168341E4,9.229655E3,1.0898011E4,1.3373145E4,1.5310905E4,1.3020157E4,1.0949669E4,1.7802057E4,1.5391248E4,1.29876455E4,1.58461045E4,2.0877994E4,1.7635791E4,1.4874304E4,1.84542E4],"split_indices":[2,18,2,12,2,2,2,2,10,2,14,10,6,10,10,10,6,0,0,10,10,6,6,2,10,2,17,6,10,6,10,0,0,0,0,0,0,0,0,0,0,0,0,0,0,0,0,0,0,0,0,0,0,0,0,0,0,0,0],"split_type":[0,0,0,0,0,0,0,0,0,0,0,0,0,0,0,0,0,0,0,0,0,0,0,0,0,0,0,0,0,0,0,0,0,0,0,0,0,0,0,0,0,0,0,0,0,0,0,0,0,0,0,0,0,0,0,0,0,0,0],"sum_hessian":[1.5405E4,1.1882E4,3.523E3,7.866E3,4.016E3,1.839E3,1.684E3,7.758E3,1.08E2,7.55E2,3.261E3,9.26E2,9.13E2,8.47E2,8.37E2,7.655E3,1.03E2,3.8E1,7E1,3.79E2,3.76E2,2.087E3,1.174E3,2.87E2,6.39E2,4.84E2,4.29E2,2.35E2,6.12E2,2.38E2,5.99E2,2.327E3,5.328E3,3.4E1,6.9E1,1.15E2,2.64E2,1.45E2,2.31E2,1.5E3,5.87E2,1.031E3,1.43E2,9.3E1,1.94E2,1.81E2,4.58E2,2.07E2,2.77E2,3.31E2,9.8E1,1.89E2,4.6E1,1.51E2,4.61E2,1.96E2,4.2E1,1.77E2,4.22E2],"tree_param":{"num_deleted":"0","num_feature":"19","num_nodes":"59","size_leaf_vector":"0"}},{"base_weights":[1.8418003E5,1.2671894E5,3.7238266E5,9.62586E4,2.5505625E5,3.0889016E5,4.3191478E5,6.588737E4,1.2327801E5,2.1385473E5,2.8930072E5,2.5866644E5,3.7120012E5,3.7261972E5,4.9341662E5,5.422279E4,8.072021E4,1.06346945E5,1.6269367E5,1.297985E5,2.2387048E5,2.769842E5,3.1060788E5,2.1554572E5,2.8517062E5,3.395673E5,4.0410444E5,3.3419562E5,4.0962503E5,4.644524E5,5.306467E5,1.9578048E3,3.6231914E3,2.8363977E3,4.0291038E3,3.6586694E3,4.3994297E3,7.423391E3,5.539155E3,4.2230215E3,5.168522E3,9.507436E3,7.8964336E3,7.8938433E3,1.0427586E4,1.2038118E4,1.0811727E4,6.840779E3,9.441193E3,9.114397E3,1.169344E4,1.3305087E4,1.1751934E4,1.3602335E4,1.5796668E4,1.114165E4,1.3309104E4,1.3403108E4,1.60506875E4,1.5968329E4,1.7984045E4,1.7985236E4,2.0465846E4],"categories":[],"categories_nodes":[],"categories_segments":[],"categories_sizes":[],"default_left":[0,0,0,0,0,0,0,0,0,0,0,0,0,0,0,0,0,0,0,0,0,0,0,0,0,0,0,0,0,0,0,0,0,0,0,0,0,0,0,0,0,0,0,0,0,0,0,0,0,0,0,0,0,0,0,0,0,0,0,0,0,0,0],"id":5,"left_children":[1,3,5,7,9,11,13,15,17,19,21,23,25,27,29,31,33,35,37,39,41,43,45,47,49,51,53,55,57,59,61,-1,-1,-1,-1,-1,-1,-1,-1,-1,-1,-1,-1,-1,-1,-1,-1,-1,-1,-1,-1,-1,-1,-1,-1,-1,-1,-1,-1,-1,-1,-1,-1],"loss_changes":[1.6590298E14,4.594053E13,1.3486264E13,7.792371E12,3.1448556E12,5.3846307E12,6.641093E12,7.716282E11,3.345033E12,8.464273E11,2.7236132E11,1.0664563E12,7.259753E11,1.2630308E12,8.3345854E11,1.7303758E11,2.4024764E11,3.28997E11,7.5281885E11,7.147094E9,3.0737537E11,1.25141254E11,5.990305E10,4.1995888E11,6.504904E11,1.0387194E11,2.0442199E11,3.172991E11,4.205377E11,2.1959698E11,2.0156147E11,0E0,0E0,0E0,0E0,0E0,0E0,0E0,0E0,0E0,0E0,0E0,0E0,0E0,0E0,0E0,0E0,0E0,0E0,0E0,0E0,0E0,0E0,0E0,0E0,0E0,0E0,0E0,0E0,0E0,0E0,0E0,0E0],"parents":[2147483647,0,0,1,1,2,2,3,3,4,4,5,5,6,6,7,7,8,8,9,9,10,10,11,11,12,12,13,13,14,14,15,15,16,16,17,17,18,18,19,19,20,20,21,21,22,22,23,23,24,24,25,25,26,26,27,27,28,28,29,29,30,30],"right_children":[2,4,6,8,10,12,14,16,18,20,22,24,26,28,30,32,34,36,38,40,42,44,46,48,50,52,54,56,58,60,62,-1,-1,-1,-1,-1,-1,-1,-1,-1,-1,-1,-1,-1,-1,-1,-1,-1,-1,-1,-1,-1,-1,-1,-1,-1,-1,-1,-1,-1,-1,-1,-1],"split_conditions":[6.4769E2,1.7677E2,1.74932E3,9.545E1,2.2881E2,1.9983E2,1.8639E2,6.606E1,1E0,1E0,2.757E2,1.246E2,1.18011E3,2.32798E3,2.47473E3,1E0,1E0,1.2682E2,2E0,1.2199E4,2E0,1E0,1E0,1.30469E3,1.11117E3,1E0,2.3226E2,1.2568E2,1.2041E2,2.2881E2,2.2501E2,1.9578048E3,3.6231914E3,2.8363977E3,4.0291038E3,3.6586694E3,4.3994297E3,7.423391E3,5.539155E3,4.2230215E3,5.168522E3,9.507436E3,7.8964336E3,7.8938433E3,1.0427586E4,1.2038118E4,1.0811727E4,6.840779E3,9.441193E3,9.114397E3,1.169344E4,1.3305087E4,1.1751934E4,1.3602335E4,1.5796668E4,1.114165E4,1.3309104E4,1.3403108E4,1.60506875E4,1.5968329E4,1.7984045E4,1.7985236E4,2.0465846E4],"split_indices":[2,1,2,1,1,1,1,1,18,9,1,1,2,2,2,18,18,1,9,0,9,18,15,2,2,15,1,1,1,1,1,0,0,0,0,0,0,0,0,0,0,0,0,0,0,0,0,0,0,0,0,0,0,0,0,0,0,0,0,0,0,0,0],"split_type":[0,0,0,0,0,0,0,0,0,0,0,0,0,0,0,0,0,0,0,0,0,0,0,0,0,0,0,0,0,0,0,0,0,0,0,0,0,0,0,0,0,0,0,0,0,0,0,0,0,0,0,0,0,0,0,0,0,0,0,0,0,0,0],"sum_hessian":[1.5343E4,1.1755E4,3.588E3,9.501E3,2.254E3,1.738E3,1.85E3,4.474E3,5.027E3,1.025E3,1.229E3,9.64E2,7.74E2,9.44E2,9.06E2,2.506E3,1.968E3,3.518E3,1.509E3,1.1E2,9.15E2,7.84E2,4.45E2,3.69E2,5.95E2,3.98E2,3.76E2,4.66E2,4.78E2,5.14E2,3.92E2,2.416E3,9E1,1.692E3,2.76E2,2.096E3,1.422E3,4.12E2,1.097E3,4.2E1,6.8E1,2.45E2,6.7E2,3.8E1,7.46E2,2.67E2,1.78E2,2.03E2,1.66E2,2.51E2,3.44E2,2.23E2,1.75E2,1.33E2,2.43E2,1.9E2,2.76E2,1.48E2,3.3E2,1.82E2,3.32E2,1.17E2,2.75E2],"tree_param":{"num_deleted":"0","num_feature":"19","num_nodes":"63","size_leaf_vector":"0"}},{"base_weights":[1.77701E5,1.2288351E5,3.5822494E5,9.450689E4,2.552758E5,2.962798E5,4.1180416E5,6.5243242E4,1.2274795E5,2.1677506E5,2.8031125E5,2.4838981E5,3.5612516E5,3.550673E5,4.7206603E5,5.129448E4,7.869424E4,1.0307264E5,1.5961445E5,4.398975E3,2.2374116E5,3.1022894E5,2.631883E5,2.0494581E5,2.717718E5,3.237951E5,3.8571372E5,3.1731953E5,3.9040756E5,4.42175E5,5.0685694E5,1.7299814E3,2.2560405E3,2.7637446E3,3.7957393E3,3.5343848E3,4.213048E3,4.5804395E3,6.4144316E3,9.633012E3,7.838006E3,1.2881735E4,1.0969235E4,1.0894117E4,9.268743E3,6.672112E3,9.169523E3,8.745084E3,1.1073598E4,1.2754761E4,1.0985395E4,1.5897134E4,1.3280758E4,1.0592565E4,1.2617709E4,1.5992194E4,1.3436175E4,1.5378994E4,1.7486191E4,2.0925758E4,1.8019582E4],"categories":[],"categories_nodes":[],"categories_segments":[],"categories_sizes":[],"default_left":[0,0,0,0,0,0,0,0,0,0,0,0,0,0,0,0,0,0,0,0,0,0,0,0,0,0,0,0,0,0,0,0,0,0,0,0,0,0,0,0,0,0,0,0,0,0,0,0,0,0,0,0,0,0,0,0,0,0,0,0,0],"id":6,"left_children":[1,3,5,7,9,11,13,15,17,19,21,23,25,27,29,31,33,35,37,-1,39,41,43,45,47,49,51,53,55,57,59,-1,-1,-1,-1,-1,-1,-1,-1,-1,-1,-1,-1,-1,-1,-1,-1,-1,-1,-1,-1,-1,-1,-1,-1,-1,-1,-1,-1,-1,-1],"loss_changes":[1.522775E14,4.4341393E13,1.1825756E13,8.0312365E12,1.9727993E12,4.7189443E12,6.46859E12,8.938439E11,3.579159E12,5.5023396E11,5.980155E11,9.08654E11,6.334909E11,1.2503304E12,8.356228E11,1.0368372E11,2.4729826E11,2.587529E11,7.866753E11,0E0,3.2315854E11,1.9421725E11,2.9438142E11,3.21614E11,5.27979E11,1.33630525E11,3.686877E11,2.8572438E11,4.9787227E11,2.9044716E11,3.7695888E11,0E0,0E0,0E0,0E0,0E0,0E0,0E0,0E0,0E0,0E0,0E0,0E0,0E0,0E0,0E0,0E0,0E0,0E0,0E0,0E0,0E0,0E0,0E0,0E0,0E0,0E0,0E0,0E0,0E0,0E0],"parents":[2147483647,0,0,1,1,2,2,3,3,4,4,5,5,6,6,7,7,8,8,9,9,10,10,11,11,12,12,13,13,14,14,15,15,16,16,17,17,18,18,20,20,21,21,22,22,23,23,24,24,25,25,26,26,27,27,28,28,29,29,30,30],"right_children":[2,4,6,8,10,12,14,16,18,20,22,24,26,28,30,32,34,36,38,-1,40,42,44,46,48,50,52,54,56,58,60,-1,-1,-1,-1,-1,-1,-1,-1,-1,-1,-1,-1,-1,-1,-1,-1,-1,-1,-1,-1,-1,-1,-1,-1,-1,-1,-1,-1,-1,-1],"split_conditions":[6.4769E2,1.8639E2,1.71834E3,9.994E1,2.2881E2,1.9983E2,1.8639E2,6.248E1,1E0,1E0,-8.33E0,1.2102E2,1.14472E3,2.32798E3,2.43929E3,4.823E1,1E0,1.2682E2,1.2568E2,4.398975E3,2E0,1E0,1E0,1.3905E3,1.11117E3,-7.79E0,-8.17E0,1.2568E2,-8.14E0,2.4258E2,1E0,1.7299814E3,2.2560405E3,2.7637446E3,3.7957393E3,3.5343848E3,4.213048E3,4.5804395E3,6.4144316E3,9.633012E3,7.838006E3,1.2881735E4,1.0969235E4,1.0894117E4,9.268743E3,6.672112E3,9.169523E3,8.745084E3,1.1073598E4,1.2754761E4,1.0985395E4,1.5897134E4,1.3280758E4,1.0592565E4,1.2617709E4,1.5992194E4,1.3436175E4,1.5378994E4,1.7486191E4,2.0925758E4,1.8019582E4],"split_indices":[2,1,2,1,1,1,1,1,9,9,6,1,2,2,2,1,9,1,1,0,9,10,10,2,2,6,6,1,6,1,10,0,0,0,0,0,0,0,0,0,0,0,0,0,0,0,0,0,0,0,0,0,0,0,0,0,0,0,0,0,0],"split_type":[0,0,0,0,0,0,0,0,0,0,0,0,0,0,0,0,0,0,0,0,0,0,0,0,0,0,0,0,0,0,0,0,0,0,0,0,0,0,0,0,0,0,0,0,0,0,0,0,0,0,0,0,0,0,0,0,0,0,0,0,0],"sum_hessian":[1.539E4,1.1806E4,3.584E3,9.723E3,2.083E3,1.664E3,1.92E3,4.776E3,4.947E3,8.23E2,1.26E3,9.26E2,7.38E2,9.91E2,9.29E2,2.346E3,2.43E3,3.227E3,1.72E3,5.5E1,7.68E2,4.55E2,8.05E2,3.26E2,6E2,3.56E2,3.82E2,4.82E2,5.09E2,5.04E2,4.25E2,1.548E3,7.98E2,2.042E3,3.88E2,1.792E3,1.435E3,4.45E2,1.275E3,2.07E2,5.61E2,1.34E2,3.21E2,2.58E2,5.47E2,2.03E2,1.23E2,2.49E2,3.51E2,2.11E2,1.45E2,1.54E2,2.28E2,1.95E2,2.87E2,2.15E2,2.94E2,2.5E2,2.54E2,1.2E2,3.05E2],"tree_param":{"num_deleted":"0","num_feature":"19","num_nodes":"61","size_leaf_vector":"0"}},{"base_weights":[1.714992E5,1.177814E5,3.4736256E5,7.709093E4,1.9109836E5,2.934882E5,4.1054666E5,6.837891E4,8.1449734E4,1.2050554E5,1.9504431E5,2.631013E5,3.250716E5,3.785466E5,4.4149347E5,7.111139E4,6.0000035E4,8.83116E4,7.482338E4,7.7227766E4,1.7203606E5,2.2578108E5,1.8362061E5,2.9567222E5,2.4879027E5,3.4852997E5,2.9501016E5,4.154088E5,3.5996047E5,4.729112E5,4.033886E5,2.9200815E3,2.5355593E3,2.4537732E3,2.13093E3,3.6945112E3,3.1062986E3,3.0893704E3,2.6482559E3,2.463258E3,3.880326E3,6.9587886E3,5.307211E3,1.1275594E4,7.427119E3,7.5822056E3,6.500507E3,1.1859601E4,9.908883E3,8.0446084E3,9.766632E3,1.3370741E4,1.1066963E4,1.1424846E4,9.451289E3,1.6810576E4,1.4969612E4,1.4983197E4,1.2784018E4,1.9356053E4,1.692747E4,1.7306379E4,1.4014932E4],"categories":[],"categories_nodes":[],"categories_segments":[],"categories_sizes":[],"default_left":[0,0,0,0,0,0,0,0,0,0,0,0,0,0,0,0,0,0,0,0,0,0,0,0,0,0,0,0,0,0,0,0,0,0,0,0,0,0,0,0,0,0,0,0,0,0,0,0,0,0,0,0,0,0,0,0,0,0,0,0,0,0,0],"id":7,"left_children":[1,3,5,7,9,11,13,15,17,19,21,23,25,27,29,31,33,35,37,39,41,43,45,47,49,51,53,55,57,59,61,-1,-1,-1,-1,-1,-1,-1,-1,-1,-1,-1,-1,-1,-1,-1,-1,-1,-1,-1,-1,-1,-1,-1,-1,-1,-1,-1,-1,-1,-1,-1,-1],"loss_changes":[1.449174E14,3.5055875E13,1.2148483E13,2.8380758E11,1.1546751E12,1.811436E12,1.5368265E12,5.5305044E10,2.25102E11,4.9085153E11,1.3702959E12,4.1917874E11,6.088032E11,4.7132233E11,8.8875624E11,3.8642123E10,7.9765176E9,1.2660716E11,7.370021E10,3.2573686E10,2.9017244E10,2.1390531E12,5.0225113E11,1.5284673E11,2.7416068E11,2.2667277E11,1.5975265E11,2.3240638E10,3.0365083E11,2.5060128E11,5.290695E11,0E0,0E0,0E0,0E0,0E0,0E0,0E0,0E0,0E0,0E0,0E0,0E0,0E0,0E0,0E0,0E0,0E0,0E0,0E0,0E0,0E0,0E0,0E0,0E0,0E0,0E0,0E0,0E0,0E0,0E0,0E0,0E0],"parents":[2147483647,0,0,1,1,2,2,3,3,4,4,5,5,6,6,7,7,8,8,9,9,10,10,11,11,12,12,13,13,14,14,15,15,16,16,17,17,18,18,19,19,20,20,21,21,22,22,23,23,24,24,25,25,26,26,27,27,28,28,29,29,30,30],"right_children":[2,4,6,8,10,12,14,16,18,20,22,24,26,28,30,32,34,36,38,40,42,44,46,48,50,52,54,56,58,60,62,-1,-1,-1,-1,-1,-1,-1,-1,-1,-1,-1,-1,-1,-1,-1,-1,-1,-1,-1,-1,-1,-1,-1,-1,-1,-1,-1,-1,-1,-1,-1,-1],"split_conditions":[6.4769E2,1E0,1.8865E3,3E0,1.485E1,1.30469E3,2.43929E3,-7.32E0,-8.03E0,1E0,2E0,1E0,-7.87E0,-8.32E0,-7.91E0,1E0,1E0,1E0,1E0,2.0655E4,-7.61E0,4.205E1,1E0,-7.79E0,2E0,5E0,5E0,1E0,1E0,1E0,1E0,2.9200815E3,2.5355593E3,2.4537732E3,2.13093E3,3.6945112E3,3.1062986E3,3.0893704E3,2.6482559E3,2.463258E3,3.880326E3,6.9587886E3,5.307211E3,1.1275594E4,7.427119E3,7.5822056E3,6.500507E3,1.1859601E4,9.908883E3,8.0446084E3,9.766632E3,1.3370741E4,1.1066963E4,1.1424846E4,9.451289E3,1.6810576E4,1.4969612E4,1.4983197E4,1.2784018E4,1.9356053E4,1.692747E4,1.7306379E4,1.4014932E4],"split_indices":[2,9,2,3,2,2,2,6,6,18,9,10,6,6,6,10,10,10,10,0,6,2,10,6,10,17,17,10,10,10,10,0,0,0,0,0,0,0,0,0,0,0,0,0,0,0,0,0,0,0,0,0,0,0,0,0,0,0,0,0,0,0,0],"split_type":[0,0,0,0,0,0,0,0,0,0,0,0,0,0,0,0,0,0,0,0,0,0,0,0,0,0,0,0,0,0,0,0,0,0,0,0,0,0,0,0,0,0,0,0,0,0,0,0,0,0,0,0,0,0,0,0,0,0,0,0,0,0,0],"sum_hessian":[1.5342E4,1.1753E4,3.589E3,7.559E3,4.194E3,1.939E3,1.65E3,2.524E3,5.035E3,2.23E2,3.971E3,9.91E2,9.48E2,8.15E2,8.35E2,1.9E3,6.24E2,2.47E3,2.565E3,1.22E2,1.01E2,1.073E3,2.898E3,2.99E2,6.92E2,5.29E2,4.19E2,2.69E2,5.46E2,4.54E2,3.81E2,5.47E2,1.353E3,1.94E2,4.3E2,7.57E2,1.713E3,7.93E2,1.772E3,8.8E1,3.4E1,6.5E1,3.6E1,2.71E2,8.02E2,8.93E2,2.005E3,1.65E2,1.34E2,2.06E2,4.86E2,4.35E2,9.4E1,3.22E2,9.7E1,6.7E1,2.02E2,1.49E2,3.97E2,1.22E2,3.32E2,1.13E2,2.68E2],"tree_param":{"num_deleted":"0","num_feature":"19","num_nodes":"63","size_leaf_vector":"0"}},{"base_weights":[1.6510442E5,7.565615E4,2.5205417E5,5.4804344E4,9.95838E4,3.0303953E5,1.7514684E5,4.4989773E4,6.635953E4,9.6749914E4,9.497011E3,2.5024238E5,3.659088E5,1.2750145E5,2.384349E5,4.1490633E4,5.303101E4,5.993791E4,7.287183E4,8.737055E4,1.0869397E5,2.0654519E5,2.793121E5,3.2427416E5,3.863512E5,8.8518734E4,1.5189903E5,2.0470681E5,2.5502058E5,1.4537856E3,1.7364266E3,1.8779174E3,2.4475847E3,2.003773E3,2.444539E3,3.0287144E3,2.5732249E3,3.3878223E3,2.7156436E3,3.984402E3,5.826924E3,6.031268E3,8.074781E3,1.1394682E4,9.721313E3,1.3903959E4,1.152308E4,1.5905594E4,1.3699704E4,2.8231797E3,3.6810435E3,6.87171E3,5.4478267E3,8.365878E3,6.9291436E3,9.902153E3,8.570563E3],"categories":[],"categories_nodes":[],"categories_segments":[],"categories_sizes":[],"default_left":[0,0,0,0,0,0,0,0,0,0,0,0,0,0,0,0,0,0,0,0,0,0,0,0,0,0,0,0,0,0,0,0,0,0,0,0,0,0,0,0,0,0,0,0,0,0,0,0,0,0,0,0,0,0,0,0,0],"id":8,"left_children":[1,3,5,7,9,11,13,15,17,19,-1,21,23,25,27,29,31,33,35,37,39,41,43,45,47,49,51,53,55,-1,-1,-1,-1,-1,-1,-1,-1,-1,-1,-1,-1,-1,-1,-1,-1,-1,-1,-1,-1,-1,-1,-1,-1,-1,-1,-1,-1],"loss_changes":[1.1919148E14,3.766548E12,3.0442493E13,4.5626687E11,1.5360548E12,1.5456245E13,9.328661E12,6.0209234E10,7.496165E10,3.8156632E11,0E0,3.194751E12,1.7409381E12,1.6751589E12,7.138034E11,1.8101567E10,1.9766575E10,3.0725898E10,2.5891439E10,9.7821655E10,1.106038E11,4.493945E11,6.950717E11,4.4384125E11,9.781956E11,8.533049E10,1.8160497E11,1.3974582E11,2.0642267E11,0E0,0E0,0E0,0E0,0E0,0E0,0E0,0E0,0E0,0E0,0E0,0E0,0E0,0E0,0E0,0E0,0E0,0E0,0E0,0E0,0E0,0E0,0E0,0E0,0E0,0E0,0E0,0E0],"parents":[2147483647,0,0,1,1,2,2,3,3,4,4,5,5,6,6,7,7,8,8,9,9,11,11,12,12,13,13,14,14,15,15,16,16,17,17,18,18,19,19,20,20,21,21,22,22,23,23,24,24,25,25,26,26,27,27,28,28],"right_children":[2,4,6,8,10,12,14,16,18,20,-1,22,24,26,28,30,32,34,36,38,40,42,44,46,48,50,52,54,56,-1,-1,-1,-1,-1,-1,-1,-1,-1,-1,-1,-1,-1,-1,-1,-1,-1,-1,-1,-1,-1,-1,-1,-1,-1,-1,-1,-1],"split_conditions":[1E0,9.545E1,2E0,6.248E1,3.021E1,1.9299E2,1.9654E2,4.922E1,7.97E1,1.26E2,9.497011E3,1.2568E2,2.2724E2,1.2568E2,2.3056E2,5E0,6E0,4E0,-8.5E0,1.2568E2,1.9827E2,7.304E1,-8.26E0,2E0,1E0,9.545E1,1.2569E2,-8.03E0,-7.48E0,1.4537856E3,1.7364266E3,1.8779174E3,2.4475847E3,2.003773E3,2.444539E3,3.0287144E3,2.5732249E3,3.3878223E3,2.7156436E3,3.984402E3,5.826924E3,6.031268E3,8.074781E3,1.1394682E4,9.721313E3,1.3903959E4,1.152308E4,1.5905594E4,1.3699704E4,2.8231797E3,3.6810435E3,6.87171E3,5.4478267E3,8.365878E3,6.9291436E3,9.902153E3,8.570563E3],"split_indices":[9,1,9,1,12,1,1,1,1,1,0,1,1,1,1,3,3,3,6,1,1,1,6,17,10,1,1,6,6,0,0,0,0,0,0,0,0,0,0,0,0,0,0,0,0,0,0,0,0,0,0,0,0,0,0,0,0],"split_type":[0,0,0,0,0,0,0,0,0,0,0,0,0,0,0,0,0,0,0,0,0,0,0,0,0,0,0,0,0,0,0,0,0,0,0,0,0,0,0,0,0,0,0,0,0,0,0,0,0,0,0,0,0,0,0,0,0],"sum_hessian":[1.5326E4,7.555E3,7.771E3,4.038E3,3.517E3,4.672E3,3.099E3,2.185E3,1.853E3,3.455E3,6.2E1,2.541E3,2.131E3,1.769E3,1.33E3,1.525E3,6.6E2,9.36E2,9.17E2,1.938E3,1.517E3,1.017E3,1.524E3,7.05E2,1.426E3,6.82E2,1.087E3,4.41E2,8.89E2,1.039E3,4.86E2,5.51E2,1.09E2,4.56E2,4.8E2,2.77E2,6.4E2,1.545E3,3.93E2,1.468E3,4.9E1,1.94E2,8.23E2,6.12E2,9.12E2,1.59E2,5.46E2,4.37E2,9.89E2,3.09E2,3.73E2,1.55E2,9.32E2,2.09E2,2.32E2,6.12E2,2.77E2],"tree_param":{"num_deleted":"0","num_feature":"19","num_nodes":"57","size_leaf_vector":"0"}},{"base_weights":[1.583301E5,1.1212161E5,3.3649038E5,8.168789E4,2.2018294E5,2.8520997E5,3.9030428E5,5.535659E4,1.0558159E5,1.6991005E5,2.4711369E5,2.419818E5,3.4070903E5,3.4298272E5,4.4478956E5,4.5115316E4,6.8793516E4,9.13221E4,1.3480792E5,1.13452234E5,1.8234373E5,2.767299E5,2.3194267E5,2.0954797E5,2.6413422E5,3.7485862E5,3.1596325E5,3.206354E5,3.7618034E5,4.9332044E5,4.244296E5,1.4843065E3,1.9517297E3,2.4206318E3,3.2723843E3,3.152893E3,3.772697E3,3.9552761E3,5.5448735E3,4.834711E3,3.8746265E3,7.7342104E3,6.3043584E3,1.1652352E4,9.51484E3,7.6928315E3,9.244732E3,6.5126846E3,8.582531E3,1.0751254E4,8.660516E3,1.1734703E4,1.45282705E4,1.3457825E4,1.1092312E4,1.3461111E4,1.1164433E4,1.50783E4,1.2140154E4,1.7254646E4,1.9768428E4,1.2880689E4,1.6879684E4],"categories":[],"categories_nodes":[],"categories_segments":[],"categories_sizes":[],"default_left":[0,0,0,0,0,0,0,0,0,0,0,0,0,0,0,0,0,0,0,0,0,0,0,0,0,0,0,0,0,0,0,0,0,0,0,0,0,0,0,0,0,0,0,0,0,0,0,0,0,0,0,0,0,0,0,0,0,0,0,0,0,0,0],"id":9,"left_children":[1,3,5,7,9,11,13,15,17,19,21,23,25,27,29,31,33,35,37,39,41,43,45,47,49,51,53,55,57,59,61,-1,-1,-1,-1,-1,-1,-1,-1,-1,-1,-1,-1,-1,-1,-1,-1,-1,-1,-1,-1,-1,-1,-1,-1,-1,-1,-1,-1,-1,-1,-1,-1],"loss_changes":[1.2640948E14,4.009721E13,8.6623786E12,5.983959E12,3.6033014E12,3.8421586E12,3.8855026E12,6.2136936E11,2.0718058E12,6.453629E11,7.458647E11,6.2402855E11,5.295225E11,5.434224E11,5.8361224E11,9.737811E10,1.3759519E11,2.1776826E11,6.510818E11,1.833553E10,2.3252173E11,4.0376048E11,4.4972166E11,2.4793265E11,3.807715E11,1.9893164E11,2.7669823E11,3.5987548E11,3.99109E11,8.9426756E10,1.06318057E12,0E0,0E0,0E0,0E0,0E0,0E0,0E0,0E0,0E0,0E0,0E0,0E0,0E0,0E0,0E0,0E0,0E0,0E0,0E0,0E0,0E0,0E0,0E0,0E0,0E0,0E0,0E0,0E0,0E0,0E0,0E0,0E0],"parents":[2147483647,0,0,1,1,2,2,3,3,4,4,5,5,6,6,7,7,8,8,9,9,10,10,11,11,12,12,13,13,14,14,15,15,16,16,17,17,18,18,19,19,20,20,21,21,22,22,23,23,24,24,25,25,26,26,27,27,28,28,29,29,30,30],"right_children":[2,4,6,8,10,12,14,16,18,20,22,24,26,28,30,32,34,36,38,40,42,44,46,48,50,52,54,56,58,60,62,-1,-1,-1,-1,-1,-1,-1,-1,-1,-1,-1,-1,-1,-1,-1,-1,-1,-1,-1,-1,-1,-1,-1,-1,-1,-1,-1,-1,-1,-1,-1,-1],"split_conditions":[9.0029E2,1.6975E2,1.8789E2,9.545E1,2.105E2,2.03564E3,1.99675E3,6.606E1,1E0,1E0,-8.41E0,1.2534E2,-8.15E0,1.57908E3,1E0,4.709E1,1E0,1.26E2,1.2568E2,1E0,2E0,2E0,2.4414E2,1.3905E3,-7.85E0,2.25532E3,1E0,1E0,-7.6E0,2.57188E3,2E0,1.4843065E3,1.9517297E3,2.4206318E3,3.2723843E3,3.152893E3,3.772697E3,3.9552761E3,5.5448735E3,4.834711E3,3.8746265E3,7.7342104E3,6.3043584E3,1.1652352E4,9.51484E3,7.6928315E3,9.244732E3,6.5126846E3,8.582531E3,1.0751254E4,8.660516E3,1.1734703E4,1.45282705E4,1.3457825E4,1.1092312E4,1.3461111E4,1.1164433E4,1.50783E4,1.2140154E4,1.7254646E4,1.9768428E4,1.2880689E4,1.6879684E4],"split_indices":[2,1,1,1,1,2,2,1,9,9,6,1,6,2,10,1,9,1,1,10,9,9,1,2,6,2,10,10,6,2,10,0,0,0,0,0,0,0,0,0,0,0,0,0,0,0,0,0,0,0,0,0,0,0,0,0,0,0,0,0,0,0,0],"split_type":[0,0,0,0,0,0,0,0,0,0,0,0,0,0,0,0,0,0,0,0,0,0,0,0,0,0,0,0,0,0,0,0,0,0,0,0,0,0,0,0,0,0,0,0,0,0,0,0,0,0,0,0,0,0,0,0,0,0,0,0,0,0,0],"sum_hessian":[1.5357E4,1.2195E4,3.162E3,9.516E3,2.679E3,1.621E3,1.541E3,4.528E3,4.988E3,9.36E2,1.743E3,9.13E2,7.08E2,8.27E2,7.14E2,2.571E3,1.957E3,3.354E3,1.634E3,1.7E2,7.66E2,5.87E2,1.156E3,3.73E2,5.4E2,2.94E2,4.14E2,4.98E2,3.29E2,2.07E2,5.07E2,1.5E3,1.071E3,1.637E3,3.2E2,2.023E3,1.331E3,5.43E2,1.091E3,5.9E1,1.11E2,2.56E2,5.1E2,2.13E2,3.74E2,4.58E2,6.98E2,1.43E2,2.3E2,3E2,2.4E2,6.3E1,2.31E2,1.14E2,3E2,1.64E2,3.34E2,2.06E2,1.23E2,1.2E2,8.7E1,1.39E2,3.68E2],"tree_param":{"num_deleted":"0","num_feature":"19","num_nodes":"63","size_leaf_vector":"0"}},{"base_weights":[1.5271814E5,1.0874583E5,3.218997E5,8.052938E4,2.1884588E5,2.7215216E5,3.757576E5,5.7111297E4,1.0683797E5,1.8671867E5,2.5194023E5,2.387254E5,3.3749156E5,3.1731175E5,4.1440947E5,4.447137E4,7.006545E4,9.142545E4,1.3782839E5,1.537019E5,1.9887933E5,2.6042788E5,2.2040828E5,2.0136688E5,2.6203195E5,2.915321E5,3.54367E5,2.837258E5,3.363433E5,3.848139E5,4.4027566E5,1.5931206E3,3.0853406E3,2.4608088E3,3.3218044E3,3.1150747E3,3.7284219E3,6.683822E3,4.8244233E3,4.186315E3,6.191665E3,7.7002646E3,6.3059844E3,9.051881E3,1.0149225E4,6.7732593E3,8.449487E3,6.3437104E3,8.265796E3,8.609485E3,1.05586E4,1.1600034E4,9.687237E3,1.275384E4,1.4768608E4,1.1913912E4,1.0014886E4,1.098211E4,1.30861455E4,1.2871566E4,1.5141738E4,1.5537781E4,1.7594865E4],"categories":[],"categories_nodes":[],"categories_segments":[],"categories_sizes":[],"default_left":[0,0,0,0,0,0,0,0,0,0,0,0,0,0,0,0,0,0,0,0,0,0,0,0,0,0,0,0,0,0,0,0,0,0,0,0,0,0,0,0,0,0,0,0,0,0,0,0,0,0,0,0,0,0,0,0,0,0,0,0,0,0,0],"id":10,"left_children":[1,3,5,7,9,11,13,15,17,19,21,23,25,27,29,31,33,35,37,39,41,43,45,47,49,51,53,55,57,59,61,-1,-1,-1,-1,-1,-1,-1,-1,-1,-1,-1,-1,-1,-1,-1,-1,-1,-1,-1,-1,-1,-1,-1,-1,-1,-1,-1,-1,-1,-1,-1,-1],"loss_changes":[1.1483186E14,3.806019E13,8.472662E12,6.006814E12,2.6301222E12,3.5731863E12,3.3739652E12,8.434955E11,2.1867088E12,4.9226868E11,2.954971E11,9.256745E11,3.7358246E11,3.3447058E11,6.03359E11,1.6608553E11,1.899852E11,2.0267926E11,5.097086E11,1.6853133E11,1.9740072E11,1.6485292E11,4.274625E10,2.4966909E11,4.0990514E11,4.9126834E10,1.22968605E11,6.948074E10,1.8213765E11,2.8837098E11,2.4434337E11,0E0,0E0,0E0,0E0,0E0,0E0,0E0,0E0,0E0,0E0,0E0,0E0,0E0,0E0,0E0,0E0,0E0,0E0,0E0,0E0,0E0,0E0,0E0,0E0,0E0,0E0,0E0,0E0,0E0,0E0,0E0,0E0],"parents":[2147483647,0,0,1,1,2,2,3,3,4,4,5,5,6,6,7,7,8,8,9,9,10,10,11,11,12,12,13,13,14,14,15,15,16,16,17,17,18,18,19,19,20,20,21,21,22,22,23,23,24,24,25,25,26,26,27,27,28,28,29,29,30,30],"right_children":[2,4,6,8,10,12,14,16,18,20,22,24,26,28,30,32,34,36,38,40,42,44,46,48,50,52,54,56,58,60,62,-1,-1,-1,-1,-1,-1,-1,-1,-1,-1,-1,-1,-1,-1,-1,-1,-1,-1,-1,-1,-1,-1,-1,-1,-1,-1,-1,-1,-1,-1,-1,-1],"split_conditions":[9.0029E2,1.7825E2,1.8789E2,1.0419E2,2.3737E2,2.25532E3,1.71834E3,6.708E1,1E0,1.9299E2,5E0,1.45196E3,1.1577E2,2.2501E2,2.4258E2,1E0,1E0,1.2752E2,4.205E1,3.613E1,5E0,4.266E1,1.63E1,1.2385E2,1.2385E2,4E0,4.34E1,2E0,4.238E1,2.18019E3,4.303E1,1.5931206E3,3.0853406E3,2.4608088E3,3.3218044E3,3.1150747E3,3.7284219E3,6.683822E3,4.8244233E3,4.186315E3,6.191665E3,7.7002646E3,6.3059844E3,9.051881E3,1.0149225E4,6.7732593E3,8.449487E3,6.3437104E3,8.265796E3,8.609485E3,1.05586E4,1.1600034E4,9.687237E3,1.275384E4,1.4768608E4,1.1913912E4,1.0014886E4,1.098211E4,1.30861455E4,1.2871566E4,1.5141738E4,1.5537781E4,1.7594865E4],"split_indices":[2,1,1,1,1,2,2,1,18,1,17,2,1,1,1,18,18,1,2,2,17,7,12,1,1,17,7,17,7,2,7,0,0,0,0,0,0,0,0,0,0,0,0,0,0,0,0,0,0,0,0,0,0,0,0,0,0,0,0,0,0,0,0],"split_type":[0,0,0,0,0,0,0,0,0,0,0,0,0,0,0,0,0,0,0,0,0,0,0,0,0,0,0,0,0,0,0,0,0,0,0,0,0,0,0,0,0,0,0,0,0,0,0,0,0,0,0,0,0,0,0,0,0,0,0,0,0,0,0],"sum_hessian":[1.5438E4,1.2254E4,3.184E3,9.755E3,2.499E3,1.657E3,1.527E3,5.162E3,4.593E3,1.27E3,1.229E3,1.098E3,5.59E2,6.1E2,9.17E2,2.614E3,2.548E3,3.069E3,1.524E3,3.44E2,9.26E2,9.65E2,2.64E2,4.24E2,6.74E2,1.53E2,4.06E2,2.24E2,3.86E2,4.32E2,4.85E2,2.506E3,1.08E2,2.114E3,4.34E2,1.63E3,1.439E3,2.49E2,1.275E3,8.2E1,2.62E2,7.26E2,2E2,4.05E2,5.6E2,4.1E1,2.23E2,1.72E2,2.52E2,2.81E2,3.93E2,9E1,6.3E1,3.22E2,8.4E1,6.1E1,1.63E2,1.07E2,2.79E2,1.59E2,2.73E2,2.89E2,1.96E2],"tree_param":{"num_deleted":"0","num_feature":"19","num_nodes":"63","size_leaf_vector":"0"}},{"base_weights":[1.4763973E5,7.266188E4,2.290753E5,6.824621E4,2.3782688E5,1.8498902E5,2.8232762E5,4.8371195E4,9.013725E4,1.8391677E5,3.1107653E5,1.4839414E5,2.0695286E5,2.541624E5,3.000682E5,3.9576598E4,5.8809426E4,8.7262984E4,1.842785E5,5.413684E3,7.435555E3,1.3758376E4,9.748014E3,1.5707483E5,1.16455836E5,2.1766723E5,1.7757495E5,2.739817E5,2.2932478E5,3.329068E5,2.8570306E5,1.3638148E3,1.7522816E3,1.8752032E3,2.3545696E3,3.7137776E3,3.0379531E3,5.5180767E3,7.853113E3,6.6065356E3,5.500415E3,4.0358318E3,5.1768047E3,7.188907E3,8.530504E3,7.623068E3,6.182788E3,1.1304935E4,9.62937E3,9.660565E3,8.078398E3,1.2851284E4,1.0667002E4,8.611925E3,1.1428231E4],"categories":[],"categories_nodes":[],"categories_segments":[],"categories_sizes":[],"default_left":[0,0,0,0,0,0,0,0,0,0,0,0,0,0,0,0,0,0,0,0,0,0,0,0,0,0,0,0,0,0,0,0,0,0,0,0,0,0,0,0,0,0,0,0,0,0,0,0,0,0,0,0,0,0,0],"id":11,"left_children":[1,3,5,7,9,11,13,15,17,19,21,23,25,27,29,31,33,35,37,-1,-1,-1,-1,39,41,43,45,47,49,51,53,-1,-1,-1,-1,-1,-1,-1,-1,-1,-1,-1,-1,-1,-1,-1,-1,-1,-1,-1,-1,-1,-1,-1,-1],"loss_changes":[9.403022E13,5.83931E12,1.7301538E13,3.396153E12,7.9021946E11,3.2297147E12,1.625578E12,3.746132E11,9.9625415E11,5.707871E10,1.9562915E11,4.1004564E11,7.7173516E11,6.010186E11,9.102814E11,4.8010363E10,6.827226E10,2.5019023E11,8.710757E10,0E0,0E0,0E0,0E0,2.1106996E11,5.0545033E10,4.9507887E11,1.9180552E11,2.8028017E11,1.82102E11,2.9611786E11,1.6124918E12,0E0,0E0,0E0,0E0,0E0,0E0,0E0,0E0,0E0,0E0,0E0,0E0,0E0,0E0,0E0,0E0,0E0,0E0,0E0,0E0,0E0,0E0,0E0,0E0],"parents":[2147483647,0,0,1,1,2,2,3,3,4,4,5,5,6,6,7,7,8,8,9,9,10,10,11,11,12,12,13,13,14,14,15,15,16,16,17,17,18,18,23,23,24,24,25,25,26,26,27,27,28,28,29,29,30,30],"right_children":[2,4,6,8,10,12,14,16,18,20,22,24,26,28,30,32,34,36,38,-1,-1,-1,-1,40,42,44,46,48,50,52,54,-1,-1,-1,-1,-1,-1,-1,-1,-1,-1,-1,-1,-1,-1,-1,-1,-1,-1,-1,-1,-1,-1,-1,-1],"split_conditions":[1E0,3.382E1,1.9654E2,9.545E1,1.9654E2,1.2568E2,2.3559E2,6.161E1,1.9117E2,1.2102E2,-8.38E0,5.8E-1,-7.42E0,-7.83E0,1E0,4.922E1,3E0,1E0,2.1995E2,5.413684E3,7.435555E3,1.3758376E4,9.748014E3,1E0,1.1247E2,4.242E1,1E0,1E0,1E0,-7.21E0,2E0,1.3638148E3,1.7522816E3,1.8752032E3,2.3545696E3,3.7137776E3,3.0379531E3,5.5180767E3,7.853113E3,6.6065356E3,5.500415E3,4.0358318E3,5.1768047E3,7.188907E3,8.530504E3,7.623068E3,6.182788E3,1.1304935E4,9.62937E3,9.660565E3,8.078398E3,1.2851284E4,1.0667002E4,8.611925E3,1.1428231E4],"split_indices":[18,12,1,1,1,1,1,1,1,1,6,14,6,6,10,1,3,10,1,0,0,0,0,10,1,7,10,10,10,6,10,0,0,0,0,0,0,0,0,0,0,0,0,0,0,0,0,0,0,0,0,0,0,0,0],"split_type":[0,0,0,0,0,0,0,0,0,0,0,0,0,0,0,0,0,0,0,0,0,0,0,0,0,0,0,0,0,0,0,0,0,0,0,0,0,0,0,0,0,0,0,0,0,0,0,0,0,0,0,0,0,0,0],"sum_hessian":[1.5401E4,8.019E3,7.382E3,7.811E3,2.08E2,4.04E3,3.342E3,4.095E3,3.716E3,1.21E2,8.7E1,1.517E3,2.523E3,1.295E3,2.047E3,2.224E3,1.871E3,3.607E3,1.09E2,3.7E1,8.4E1,3.8E1,4.9E1,1.191E3,3.26E2,1.846E3,6.77E2,7.17E2,5.78E2,6.19E2,1.428E3,1.6E3,6.24E2,6.48E2,1.223E3,1.12E3,2.487E3,4.8E1,6.1E1,3.7E2,8.21E2,2.43E2,8.3E1,5.92E2,1.254E3,1.98E2,4.79E2,2.4E2,4.77E2,1.64E2,4.14E2,4.86E2,1.33E2,4.04E2,1.024E3],"tree_param":{"num_deleted":"0","num_feature":"19","num_nodes":"55","size_leaf_vector":"0"}},{"base_weights":[1.419105E5,9.9786375E4,3.0220238E5,7.2731555E4,1.9421373E5,2.5204219E5,3.4676912E5,5.0987383E4,9.510733E4,1.5206869E5,2.1909519E5,2.1254461E5,2.9943647E5,3.031524E5,3.9669456E5,4.39179E4,6.816736E4,8.289442E4,1.22844305E5,9.869214E4,1.6346127E5,2.4591434E5,2.051012E5,1.8649331E5,2.3399398E5,3.2695775E5,2.729766E5,3.423666E5,2.8362147E5,4.4164647E5,3.7721597E5,1.5650967E3,2.7090164E3,2.4127205E3,3.0852275E3,2.891231E3,3.4835745E3,5.663113E3,4.0343113E3,4.2814053E3,3.370877E3,7.0854087E3,5.5630454E3,1.032478E4,8.460024E3,6.69327E3,8.157262E3,5.561755E3,7.5291616E3,9.560512E3,7.5486235E3,1.1488863E4,1.3848631E4,8.674264E3,1.0875655E4,1.3971184E4,1.1716285E4,8.450348E3,1.13336045E4,1.5563289E4,1.760825E4,1.1576485E4,1.5039448E4],"categories":[],"categories_nodes":[],"categories_segments":[],"categories_sizes":[],"default_left":[0,0,0,0,0,0,0,0,0,0,0,0,0,0,0,0,0,0,0,0,0,0,0,0,0,0,0,0,0,0,0,0,0,0,0,0,0,0,0,0,0,0,0,0,0,0,0,0,0,0,0,0,0,0,0,0,0,0,0,0,0,0,0],"id":12,"left_children":[1,3,5,7,9,11,13,15,17,19,21,23,25,27,29,31,33,35,37,39,41,43,45,47,49,51,53,55,57,59,61,-1,-1,-1,-1,-1,-1,-1,-1,-1,-1,-1,-1,-1,-1,-1,-1,-1,-1,-1,-1,-1,-1,-1,-1,-1,-1,-1,-1,-1,-1,-1,-1],"loss_changes":[1.04226106E14,3.1227172E13,7.1305517E12,4.6215484E12,2.8355005E12,2.7961495E12,3.6306567E12,5.838471E11,1.5806025E12,6.063139E11,6.124858E11,4.3692065E11,4.477713E11,6.3984946E11,5.9479425E11,1.8299434E11,6.6149417E10,1.7744423E11,5.965433E11,1.7762746E10,2.9743697E11,3.0534953E11,3.7720215E11,2.0252197E11,2.9139717E11,2.0834366E11,2.3118584E11,2.035999E11,6.7998056E11,5.8485375E10,9.125799E11,0E0,0E0,0E0,0E0,0E0,0E0,0E0,0E0,0E0,0E0,0E0,0E0,0E0,0E0,0E0,0E0,0E0,0E0,0E0,0E0,0E0,0E0,0E0,0E0,0E0,0E0,0E0,0E0,0E0,0E0,0E0,0E0],"parents":[2147483647,0,0,1,1,2,2,3,3,4,4,5,5,6,6,7,7,8,8,9,9,10,10,11,11,12,12,13,13,14,14,15,15,16,16,17,17,18,18,19,19,20,20,21,21,22,22,23,23,24,24,25,25,26,26,27,27,28,28,29,29,30,30],"right_children":[2,4,6,8,10,12,14,16,18,20,22,24,26,28,30,32,34,36,38,40,42,44,46,48,50,52,54,56,58,60,62,-1,-1,-1,-1,-1,-1,-1,-1,-1,-1,-1,-1,-1,-1,-1,-1,-1,-1,-1,-1,-1,-1,-1,-1,-1,-1,-1,-1,-1,-1,-1,-1],"split_conditions":[9.0029E2,1.6975E2,1.7677E2,9.994E1,2.1378E2,2.03564E3,1.99675E3,7.97E1,1E0,1E0,-8.41E0,1.2534E2,-7.93E0,1E0,1E0,1E0,1E0,1.3321E2,2E0,1E0,2E0,2E0,2.4414E2,1.26861E3,-7.81E0,2.73572E3,1.1577E2,-8.18E0,2E0,2.57188E3,2E0,1.5650967E3,2.7090164E3,2.4127205E3,3.0852275E3,2.891231E3,3.4835745E3,5.663113E3,4.0343113E3,4.2814053E3,3.370877E3,7.0854087E3,5.5630454E3,1.032478E4,8.460024E3,6.69327E3,8.157262E3,5.561755E3,7.5291616E3,9.560512E3,7.5486235E3,1.1488863E4,1.3848631E4,8.674264E3,1.0875655E4,1.3971184E4,1.1716285E4,8.450348E3,1.13336045E4,1.5563289E4,1.760825E4,1.1576485E4,1.5039448E4],"split_indices":[2,1,1,1,1,2,2,1,18,9,6,1,6,10,10,18,18,1,9,10,9,9,1,2,6,2,1,6,10,2,10,0,0,0,0,0,0,0,0,0,0,0,0,0,0,0,0,0,0,0,0,0,0,0,0,0,0,0,0,0,0,0,0],"split_type":[0,0,0,0,0,0,0,0,0,0,0,0,0,0,0,0,0,0,0,0,0,0,0,0,0,0,0,0,0,0,0,0,0,0,0,0,0,0,0,0,0,0,0,0,0,0,0,0,0,0,0,0,0,0,0,0,0,0,0,0,0,0,0],"sum_hessian":[1.5438E4,1.2226E4,3.212E3,9.504E3,2.722E3,1.513E3,1.699E3,4.821E3,4.683E3,1.012E3,1.71E3,8.27E2,6.86E2,9.09E2,7.9E2,3.417E3,1.404E3,3.253E3,1.43E3,1.79E2,8.33E2,5.83E2,1.127E3,3.76E2,4.51E2,3.33E2,3.53E2,2.99E2,6.1E2,2.35E2,5.55E2,3.21E3,2.07E2,1.146E3,2.58E2,2.188E3,1.065E3,4.71E2,9.59E2,5.7E1,1.22E2,2.83E2,5.5E2,2.14E2,3.69E2,4.05E2,7.22E2,1.14E2,2.62E2,2.58E2,1.93E2,2.4E2,9.3E1,1.17E2,2.36E2,1.33E2,1.66E2,1.66E2,4.44E2,1.39E2,9.6E1,1.62E2,3.93E2],"tree_param":{"num_deleted":"0","num_feature":"19","num_nodes":"63","size_leaf_vector":"0"}},{"base_weights":[1.3698588E5,9.646567E4,2.904619E5,7.021833E4,1.8822823E5,2.5797633E5,3.520301E5,4.529218E4,8.826891E4,1.565505E5,2.182707E5,2.2099183E5,3.045166E5,3.098442E5,3.9823884E5,3.5229098E4,5.3289293E4,7.7497375E4,1.13848164E5,9.7875336E4,1.6543583E5,2.348523E5,1.9486512E5,1.7999495E5,2.4036239E5,2.7883662E5,3.3409512E5,2.881238E5,3.3878656E5,4.5699072E5,3.8094697E5,1.1555444E3,1.4211063E3,1.8833766E3,2.7330605E3,2.6522827E3,3.3063237E3,5.300109E3,3.7209258E3,4.0239727E3,3.1595737E3,7.108286E3,5.672019E3,9.752309E3,8.1685796E3,8.063733E3,6.854052E3,5.604158E3,7.421198E3,1.0418902E4,8.295932E3,1.138645E4,9.38076E3,1.3736843E4,1.1608519E4,1.1978263E4,1.0022782E4,1.3559833E4,1.0900851E4,1.555454E4,1.879672E4,1.5623823E4,1.3586418E4],"categories":[],"categories_nodes":[],"categories_segments":[],"categories_sizes":[],"default_left":[0,0,0,0,0,0,0,0,0,0,0,0,0,0,0,0,0,0,0,0,0,0,0,0,0,0,0,0,0,0,0,0,0,0,0,0,0,0,0,0,0,0,0,0,0,0,0,0,0,0,0,0,0,0,0,0,0,0,0,0,0,0,0],"id":13,"left_children":[1,3,5,7,9,11,13,15,17,19,21,23,25,27,29,31,33,35,37,39,41,43,45,47,49,51,53,55,57,59,61,-1,-1,-1,-1,-1,-1,-1,-1,-1,-1,-1,-1,-1,-1,-1,-1,-1,-1,-1,-1,-1,-1,-1,-1,-1,-1,-1,-1,-1,-1,-1,-1],"loss_changes":[9.543468E13,2.9240372E13,6.3582964E12,4.246628E12,2.550095E12,3.5763152E12,2.0830088E12,3.1819563E11,1.5037922E12,6.769292E11,5.105936E11,9.058816E11,6.508469E11,3.0788708E11,4.3213914E11,2.100586E10,1.17700035E11,2.6902895E11,6.343507E11,1.7831952E10,3.639146E11,3.041122E11,1.11635595E11,1.9833396E11,5.1326537E11,3.1822184E11,2.6572594E11,1.625167E11,2.2514185E11,9.54309E10,1.639176E11,0E0,0E0,0E0,0E0,0E0,0E0,0E0,0E0,0E0,0E0,0E0,0E0,0E0,0E0,0E0,0E0,0E0,0E0,0E0,0E0,0E0,0E0,0E0,0E0,0E0,0E0,0E0,0E0,0E0,0E0,0E0,0E0],"parents":[2147483647,0,0,1,1,2,2,3,3,4,4,5,5,6,6,7,7,8,8,9,9,10,10,11,11,12,12,13,13,14,14,15,15,16,16,17,17,18,18,19,19,20,20,21,21,22,22,23,23,24,24,25,25,26,26,27,27,28,28,29,29,30,30],"right_children":[2,4,6,8,10,12,14,16,18,20,22,24,26,28,30,32,34,36,38,40,42,44,46,48,50,52,54,56,58,60,62,-1,-1,-1,-1,-1,-1,-1,-1,-1,-1,-1,-1,-1,-1,-1,-1,-1,-1,-1,-1,-1,-1,-1,-1,-1,-1,-1,-1,-1,-1,-1,-1],"split_conditions":[9.0029E2,1.6975E2,2.1995E2,8.805E1,2.2881E2,2.03564E3,1.99675E3,5.27E1,1E0,1E0,-7.8E0,1.2534E2,1.4891E2,1.55422E3,-8.74E0,3.005E1,1E0,1.2752E2,2E0,3E0,2E0,2E0,1E0,1.3905E3,1E0,-7.93E0,-8.26E0,1E0,-7.6E0,2.54254E3,1E0,1.1555444E3,1.4211063E3,1.8833766E3,2.7330605E3,2.6522827E3,3.3063237E3,5.300109E3,3.7209258E3,4.0239727E3,3.1595737E3,7.108286E3,5.672019E3,9.752309E3,8.1685796E3,8.063733E3,6.854052E3,5.604158E3,7.421198E3,1.0418902E4,8.295932E3,1.138645E4,9.38076E3,1.3736843E4,1.1608519E4,1.1978263E4,1.0022782E4,1.3559833E4,1.0900851E4,1.555454E4,1.879672E4,1.5623823E4,1.3586418E4],"split_indices":[2,1,1,1,1,2,2,1,18,9,6,1,1,2,6,1,18,1,9,17,9,9,10,2,10,6,6,10,6,2,10,0,0,0,0,0,0,0,0,0,0,0,0,0,0,0,0,0,0,0,0,0,0,0,0,0,0,0,0,0,0,0,0],"split_type":[0,0,0,0,0,0,0,0,0,0,0,0,0,0,0,0,0,0,0,0,0,0,0,0,0,0,0,0,0,0,0,0,0,0,0,0,0,0,0,0,0,0,0,0,0,0,0,0,0,0,0,0,0,0,0,0,0,0,0,0,0,0,0],"sum_hessian":[1.5348E4,1.2143E4,3.205E3,9.443E3,2.7E3,2.1E3,1.105E3,3.967E3,5.476E3,1.316E3,1.384E3,1.172E3,9.28E2,5.8E2,5.25E2,1.758E3,2.209E3,3.855E3,1.621E3,1.74E2,1.142E3,8.07E2,5.77E2,3.78E2,7.94E2,5E2,4.28E2,3.35E2,2.45E2,1.16E2,4.09E2,7.29E2,1.029E3,1.95E3,2.59E2,2.487E3,1.368E3,5.29E2,1.092E3,9.5E1,7.9E1,3.84E2,7.58E2,2.89E2,5.18E2,1.87E2,3.9E2,1.52E2,2.26E2,2.41E2,5.53E2,2.46E2,2.54E2,1.63E2,2.65E2,1.17E2,2.18E2,1.55E2,9E1,6.7E1,4.9E1,1.15E2,2.94E2],"tree_param":{"num_deleted":"0","num_feature":"19","num_nodes":"63","size_leaf_vector":"0"}},{"base_weights":[1.3098642E5,8.8988555E4,2.6860856E5,6.875322E4,1.8845833E5,2.179174E5,3.128965E5,4.6812336E4,8.995857E4,1.6110636E5,2.0611538E5,1.8012184E5,2.6389788E5,2.7200075E5,3.6732434E5,3.8002633E4,5.952388E4,7.7893984E4,1.1535368E5,1.8478239E5,1.5000644E5,2.17263E5,1.768905E5,1.4828519E5,1.993418E5,2.431729E5,2.888677E5,2.428773E5,3.0041472E5,3.950966E5,3.3916506E5,1.2094614E3,1.6606625E3,2.111985E3,2.7899028E3,2.700016E3,3.3618623E3,3.0997808E3,4.6835127E3,8.260169E3,6.2145703E3,4.260072E3,6.1549756E3,9.146923E3,7.6260615E3,6.9418013E3,5.4374707E3,4.451206E3,6.28256E3,6.35454E3,8.192821E3,7.82895E3,9.508935E3,1.2258334E4,1.0020198E4,7.843378E3,9.649605E3,9.614047E3,1.1737727E4,1.36533E4,1.6053263E4,1.4159229E4,1.1935311E4],"categories":[],"categories_nodes":[],"categories_segments":[],"categories_sizes":[],"default_left":[0,0,0,0,0,0,0,0,0,0,0,0,0,0,0,0,0,0,0,0,0,0,0,0,0,0,0,0,0,0,0,0,0,0,0,0,0,0,0,0,0,0,0,0,0,0,0,0,0,0,0,0,0,0,0,0,0,0,0,0,0,0,0],"id":14,"left_children":[1,3,5,7,9,11,13,15,17,19,21,23,25,27,29,31,33,35,37,39,41,43,45,47,49,51,53,55,57,59,61,-1,-1,-1,-1,-1,-1,-1,-1,-1,-1,-1,-1,-1,-1,-1,-1,-1,-1,-1,-1,-1,-1,-1,-1,-1,-1,-1,-1,-1,-1,-1,-1],"loss_changes":[8.882548E13,2.3698396E13,8.02773E12,4.5513483E12,9.4194E11,2.8876021E12,4.207625E12,5.3750215E11,1.5194789E12,1.8971676E11,3.7093586E11,5.4724133E11,3.4993078E11,8.647648E11,5.6336214E11,1.02739214E11,8.2170085E10,2.2092028E11,5.3145816E11,1.4223829E11,2.8165066E11,2.7809074E11,8.3566264E10,1.938146E11,3.1879646E11,1.3655815E11,2.1851066E11,2.5447681E11,2.9946072E11,3.2682856E11,2.430767E11,0E0,0E0,0E0,0E0,0E0,0E0,0E0,0E0,0E0,0E0,0E0,0E0,0E0,0E0,0E0,0E0,0E0,0E0,0E0,0E0,0E0,0E0,0E0,0E0,0E0,0E0,0E0,0E0,0E0,0E0,0E0,0E0],"parents":[2147483647,0,0,1,1,2,2,3,3,4,4,5,5,6,6,7,7,8,8,9,9,10,10,11,11,12,12,13,13,14,14,15,15,16,16,17,17,18,18,19,19,20,20,21,21,22,22,23,23,24,24,25,25,26,26,27,27,28,28,29,29,30,30],"right_children":[2,4,6,8,10,12,14,16,18,20,22,24,26,28,30,32,34,36,38,40,42,44,46,48,50,52,54,56,58,60,62,-1,-1,-1,-1,-1,-1,-1,-1,-1,-1,-1,-1,-1,-1,-1,-1,-1,-1,-1,-1,-1,-1,-1,-1,-1,-1,-1,-1,-1,-1,-1,-1],"split_conditions":[6.4769E2,1.8789E2,1.71834E3,9.994E1,2.2881E2,1.9983E2,2.0314E2,7.07E1,1E0,1E0,-7.42E0,1.2314E2,1.22708E3,2.32798E3,-8E0,4.823E1,1E0,1.3794E2,1.2568E2,-8.56E0,2E0,1E0,5E0,1.11117E3,1.11117E3,2.2501E2,1E0,1.2173E2,1.1577E2,2.47473E3,1E0,1.2094614E3,1.6606625E3,2.111985E3,2.7899028E3,2.700016E3,3.3618623E3,3.0997808E3,4.6835127E3,8.260169E3,6.2145703E3,4.260072E3,6.1549756E3,9.146923E3,7.6260615E3,6.9418013E3,5.4374707E3,4.451206E3,6.28256E3,6.35454E3,8.192821E3,7.82895E3,9.508935E3,1.2258334E4,1.0020198E4,7.843378E3,9.649605E3,9.614047E3,1.1737727E4,1.36533E4,1.6053263E4,1.4159229E4,1.1935311E4],"split_indices":[2,1,2,1,1,1,1,1,18,10,6,1,2,2,6,1,18,1,1,6,10,10,17,2,2,1,10,1,1,2,10,0,0,0,0,0,0,0,0,0,0,0,0,0,0,0,0,0,0,0,0,0,0,0,0,0,0,0,0,0,0,0,0],"split_type":[0,0,0,0,0,0,0,0,0,0,0,0,0,0,0,0,0,0,0,0,0,0,0,0,0,0,0,0,0,0,0,0,0,0,0,0,0,0,0,0,0,0,0,0,0,0,0,0,0,0,0,0,0,0,0,0,0,0,0,0,0,0,0],"sum_hessian":[1.537E4,1.1777E4,3.593E3,9.787E3,1.99E3,1.677E3,1.916E3,4.811E3,4.976E3,7.83E2,1.207E3,9.22E2,7.55E2,1.096E3,8.2E2,2.843E3,1.968E3,3.375E3,1.601E3,2.47E2,5.36E2,8.71E2,3.36E2,3.49E2,5.73E2,4.16E2,3.39E2,5.44E2,5.52E2,4.09E2,4.11E2,1.552E3,1.291E3,1.669E3,2.99E2,2.36E3,1.015E3,3.95E2,1.206E3,7.8E1,1.69E2,1.63E2,3.73E2,2.61E2,6.1E2,2.54E2,8.2E1,1.47E2,2.02E2,2.43E2,3.3E2,1.16E2,3E2,1.08E2,2.31E2,1.86E2,3.58E2,1.47E2,4.05E2,2.33E2,1.76E2,1.24E2,2.87E2],"tree_param":{"num_deleted":"0","num_feature":"19","num_nodes":"63","size_leaf_vector":"0"}},{"base_weights":[1.2641538E5,6.2328637E4,1.9721994E5,5.8811195E4,2.1872992E5,1.5756606E5,2.44821E5,4.0211074E4,7.604314E4,1.0819645E4,1.9077614E5,1.26658266E5,1.7611634E5,2.765911E5,2.3068336E5,3.1778527E4,4.7387973E4,7.3665375E4,1.6566984E5,1.500591E5,8.882784E3,1.350181E5,9.983746E4,1.8669022E5,1.4642766E5,2.880002E5,2.3469156E5,1.8183228E5,2.4998655E5,1.0951466E3,1.3615651E3,1.5655658E3,1.9687317E3,2.4910557E3,3.1369187E3,7.789794E3,5.1079087E3,4.3211523E3,6.941789E3,5.302878E3,4.2653887E3,3.4387617E3,4.729569E3,7.868365E3,6.5397725E3,6.4032593E3,5.1215234E3,9.761344E3,1.1533933E4,9.245378E3,7.119129E3,7.4917197E3,6.0933916E3,8.640836E3,1.0374998E4],"categories":[],"categories_nodes":[],"categories_segments":[],"categories_sizes":[],"default_left":[0,0,0,0,0,0,0,0,0,0,0,0,0,0,0,0,0,0,0,0,0,0,0,0,0,0,0,0,0,0,0,0,0,0,0,0,0,0,0,0,0,0,0,0,0,0,0,0,0,0,0,0,0,0,0],"id":15,"left_children":[1,3,5,7,9,11,13,15,17,-1,19,21,23,25,27,29,31,33,35,37,-1,39,41,43,45,47,49,51,53,-1,-1,-1,-1,-1,-1,-1,-1,-1,-1,-1,-1,-1,-1,-1,-1,-1,-1,-1,-1,-1,-1,-1,-1,-1,-1],"loss_changes":[6.9865965E13,4.4395177E12,1.3786073E13,2.5324012E12,3.246166E11,2.2760978E12,1.4554738E12,2.2930994E11,8.6738416E11,0E0,2.3151562E11,3.28349E11,7.6680266E11,4.4834593E11,2.1456549E12,1.9184091E10,5.8905854E10,2.827527E11,1.1416555E11,7.592804E10,0E0,1.6392598E11,6.5937342E10,4.773034E11,1.3498214E11,4.026532E11,1.0384677E11,2.1137824E11,8.085108E11,0E0,0E0,0E0,0E0,0E0,0E0,0E0,0E0,0E0,0E0,0E0,0E0,0E0,0E0,0E0,0E0,0E0,0E0,0E0,0E0,0E0,0E0,0E0,0E0,0E0,0E0],"parents":[2147483647,0,0,1,1,2,2,3,3,4,4,5,5,6,6,7,7,8,8,10,10,11,11,12,12,13,13,14,14,15,15,16,16,17,17,18,18,19,19,21,21,22,22,23,23,24,24,25,25,26,26,27,27,28,28],"right_children":[2,4,6,8,10,12,14,16,18,-1,20,22,24,26,28,30,32,34,36,38,-1,40,42,44,46,48,50,52,54,-1,-1,-1,-1,-1,-1,-1,-1,-1,-1,-1,-1,-1,-1,-1,-1,-1,-1,-1,-1,-1,-1,-1,-1,-1,-1],"split_conditions":[1E0,1.9654E2,1.9654E2,8.882E1,-8.62E0,1.2568E2,1E0,5.27E1,3.153E1,1.0819645E4,3.153E1,5.7E-1,-7.4E0,5E0,2E0,5E0,4E0,1.2682E2,-8.28E0,2.4258E2,8.882784E3,-7.42E0,1.1521E2,1E0,1E0,2.4038E2,-7.31E0,-8.03E0,2.6141E2,1.0951466E3,1.3615651E3,1.5655658E3,1.9687317E3,2.4910557E3,3.1369187E3,7.789794E3,5.1079087E3,4.3211523E3,6.941789E3,5.302878E3,4.2653887E3,3.4387617E3,4.729569E3,7.868365E3,6.5397725E3,6.4032593E3,5.1215234E3,9.761344E3,1.1533933E4,9.245378E3,7.119129E3,7.4917197E3,6.0933916E3,8.640836E3,1.0374998E4],"split_indices":[18,1,1,1,6,1,10,1,12,0,12,14,6,17,10,3,3,1,6,1,0,6,1,10,10,1,6,6,1,0,0,0,0,0,0,0,0,0,0,0,0,0,0,0,0,0,0,0,0,0,0,0,0,0,0],"split_type":[0,0,0,0,0,0,0,0,0,0,0,0,0,0,0,0,0,0,0,0,0,0,0,0,0,0,0,0,0,0,0,0,0,0,0,0,0,0,0,0,0,0,0,0,0,0,0,0,0,0,0,0,0,0,0],"sum_hessian":[1.5398E4,8.083E3,7.315E3,7.906E3,1.77E2,3.992E3,3.323E3,3.803E3,4.103E3,4.8E1,1.29E2,1.499E3,2.493E3,1.02E3,2.303E3,1.75E3,2.053E3,3.998E3,1.05E2,7.1E1,5.8E1,1.141E3,3.58E2,1.836E3,6.57E2,7.99E2,2.21E2,6.54E2,1.649E3,1.176E3,5.74E2,1.045E3,1.008E3,2.446E3,1.552E3,4E1,6.5E1,3.8E1,3.3E1,8.34E2,3.07E2,2.83E2,7.5E1,5.63E2,1.273E3,1.66E2,4.91E2,3.7E2,4.29E2,1.66E2,5.5E1,3.13E2,3.41E2,1.02E3,6.29E2],"tree_param":{"num_deleted":"0","num_feature":"19","num_nodes":"55","size_leaf_vector":"0"}},{"base_weights":[1.2209289E5,8.471116E4,2.6482728E5,6.146763E4,1.6416894E5,2.3553338E5,3.256208E5,3.907128E4,7.678703E4,1.2624947E5,1.8742386E5,2.042704E5,2.8841428E5,2.8455872E5,3.6608044E5,3.057616E4,4.5311793E4,6.853254E4,9.77502E4,9.237734E4,1.3685716E5,2.1290652E5,1.7685562E5,1.8408631E5,2.3470697E5,3.359987E5,2.6841506E5,2.6330028E5,3.1204147E5,3.4056394E5,3.9362606E5,1.0623517E3,1.3075673E3,1.6605405E3,3.3066948E3,2.9509854E3,2.3722402E3,2.8506611E3,4.126087E3,3.2281772E3,4.7556504E3,5.85955E3,4.7583086E3,8.306171E3,6.607203E3,5.1037344E3,7.137962E3,5.7891157E3,7.551755E3,1.0114091E4,8.098447E3,1.140426E4,1.3663979E4,7.928935E3,1.0771159E4,1.0861284E4,9.120144E3,1.1873934E4,1.0113386E4,1.3843777E4,1.2138892E4,1.5100723E4,1.2161355E4],"categories":[],"categories_nodes":[],"categories_segments":[],"categories_sizes":[],"default_left":[0,0,0,0,0,0,0,0,0,0,0,0,0,0,0,0,0,0,0,0,0,0,0,0,0,0,0,0,0,0,0,0,0,0,0,0,0,0,0,0,0,0,0,0,0,0,0,0,0,0,0,0,0,0,0,0,0,0,0,0,0,0,0],"id":16,"left_children":[1,3,5,7,9,11,13,15,17,19,21,23,25,27,29,31,33,35,37,39,41,43,45,47,49,51,53,55,57,59,61,-1,-1,-1,-1,-1,-1,-1,-1,-1,-1,-1,-1,-1,-1,-1,-1,-1,-1,-1,-1,-1,-1,-1,-1,-1,-1,-1,-1,-1,-1,-1,-1],"loss_changes":[8.214845E13,2.253264E13,5.646087E12,3.237986E12,2.4213633E12,3.534154E12,1.6628738E12,2.0258174E11,9.66246E11,3.7044512E11,4.386487E11,8.093539E11,7.091268E11,2.543384E11,2.8749857E11,1.4492762E10,6.537452E10,2.0479109E11,4.3366587E11,4.4067193E10,1.3664728E11,1.5741433E11,7.026256E11,4.2131574E11,3.0783675E11,1.502232E11,6.213316E11,1.12210215E11,1.1620319E10,5.354868E10,1.2109375E11,0E0,0E0,0E0,0E0,0E0,0E0,0E0,0E0,0E0,0E0,0E0,0E0,0E0,0E0,0E0,0E0,0E0,0E0,0E0,0E0,0E0,0E0,0E0,0E0,0E0,0E0,0E0,0E0,0E0,0E0,0E0,0E0],"parents":[2147483647,0,0,1,1,2,2,3,3,4,4,5,5,6,6,7,7,8,8,9,9,10,10,11,11,12,12,13,13,14,14,15,15,16,16,17,17,18,18,19,19,20,20,21,21,22,22,23,23,24,24,25,25,26,26,27,27,28,28,29,29,30,30],"right_children":[2,4,6,8,10,12,14,16,18,20,22,24,26,28,30,32,34,36,38,40,42,44,46,48,50,52,54,56,58,60,62,-1,-1,-1,-1,-1,-1,-1,-1,-1,-1,-1,-1,-1,-1,-1,-1,-1,-1,-1,-1,-1,-1,-1,-1,-1,-1,-1,-1,-1,-1,-1,-1],"split_conditions":[9.0029E2,1.67E2,2.2501E2,8.521E1,2.124E2,2.18019E3,1.96487E3,4.922E1,1E0,1E0,1E0,1.6173E2,1E0,1.55422E3,2.54254E3,5E0,4.9892E2,1E0,1.246E2,2.579E1,1E0,5E0,2E0,1.45196E3,1E0,1.5697E2,2E0,1E0,5E0,1E0,5E0,1.0623517E3,1.3075673E3,1.6605405E3,3.3066948E3,2.9509854E3,2.3722402E3,2.8506611E3,4.126087E3,3.2281772E3,4.7556504E3,5.85955E3,4.7583086E3,8.306171E3,6.607203E3,5.1037344E3,7.137962E3,5.7891157E3,7.551755E3,1.0114091E4,8.098447E3,1.140426E4,1.3663979E4,7.928935E3,1.0771159E4,1.0861284E4,9.120144E3,1.1873934E4,1.0113386E4,1.3843777E4,1.2138892E4,1.5100723E4,1.2161355E4],"split_indices":[2,1,1,1,1,2,2,1,18,18,10,1,10,2,2,3,2,10,1,12,10,17,10,2,10,1,10,10,17,10,17,0,0,0,0,0,0,0,0,0,0,0,0,0,0,0,0,0,0,0,0,0,0,0,0,0,0,0,0,0,0,0,0],"split_type":[0,0,0,0,0,0,0,0,0,0,0,0,0,0,0,0,0,0,0,0,0,0,0,0,0,0,0,0,0,0,0,0,0,0,0,0,0,0,0,0,0,0,0,0,0,0,0,0,0,0,0,0,0,0,0,0,0,0,0,0,0,0,0],"sum_hessian":[1.5398E4,1.2203E4,3.195E3,9.442E3,2.761E3,2.158E3,1.037E3,3.836E3,5.606E3,1.051E3,1.71E3,1.358E3,8E2,5.17E2,5.2E2,1.626E3,2.21E3,4.024E3,1.582E3,2.52E2,7.99E2,4.98E2,1.212E3,8.19E2,5.39E2,2.34E2,5.66E2,2.95E2,2.22E2,2.74E2,2.46E2,1.126E3,5E2,2.176E3,3.4E1,1.241E3,2.783E3,6.06E2,9.76E2,2.19E2,3.3E1,2.41E2,5.58E2,3.84E2,1.14E2,3.32E2,8.8E2,3.27E2,4.92E2,1.68E2,3.71E2,1.23E2,1.11E2,1.57E2,4.09E2,1.12E2,1.83E2,1.86E2,3.6E1,8.2E1,1.92E2,2.06E2,4E1],"tree_param":{"num_deleted":"0","num_feature":"19","num_nodes":"63","size_leaf_vector":"0"}},{"base_weights":[1.17250164E5,8.228932E4,2.5443117E5,5.268368E4,1.3001582E5,2.177241E5,2.9445922E5,4.8798137E4,6.044318E4,1.5258656E5,1.18463914E5,1.937239E5,2.3583667E5,3.2087212E5,2.6713116E5,5.5513453E4,4.5205492E4,6.5409375E4,5.269556E4,3.399804E4,1.5854373E5,1.272716E5,1.0452856E5,1.7297166E5,2.1194412E5,2.466005E5,1.9406348E5,2.9830072E5,3.565916E5,2.4194352E5,2.9162538E5,1.8857257E3,2.2458804E3,1.7546459E3,1.3859283E3,2.2854448E3,2.9315762E3,1.8107227E3,2.2351262E3,1.5975913E3,9.3164087E2,9.097161E3,5.2694443E3,4.41579E3,5.350281E3,3.4506438E3,4.3241255E3,7.084167E3,5.6119053E3,8.863947E3,7.2022866E3,9.916611E3,8.28142E3,7.790004E3,5.4527515E3,1.2051649E4,1.02945625E4,1.1886277E4,1.4201567E4,8.629731E3,1.0657944E4,1.1302267E4,8.931599E3],"categories":[],"categories_nodes":[],"categories_segments":[],"categories_sizes":[],"default_left":[0,0,0,0,0,0,0,0,0,0,0,0,0,0,0,0,0,0,0,0,0,0,0,0,0,0,0,0,0,0,0,0,0,0,0,0,0,0,0,0,0,0,0,0,0,0,0,0,0,0,0,0,0,0,0,0,0,0,0,0,0,0,0],"id":17,"left_children":[1,3,5,7,9,11,13,15,17,19,21,23,25,27,29,31,33,35,37,39,41,43,45,47,49,51,53,55,57,59,61,-1,-1,-1,-1,-1,-1,-1,-1,-1,-1,-1,-1,-1,-1,-1,-1,-1,-1,-1,-1,-1,-1,-1,-1,-1,-1,-1,-1,-1,-1,-1,-1],"loss_changes":[7.370934E13,1.7305749E13,4.549075E12,2.2625544E11,1.2121622E12,6.821029E11,1.02651396E12,1.2016366E11,9.496638E10,1.1169851E12,3.732721E11,2.4497042E11,3.8864E11,5.469708E11,4.131725E11,3.9272317E10,4.958873E10,7.931167E10,2.7703378E10,5.499265E9,2.1810129E12,2.6035094E11,1.5963836E11,1.11299E11,1.5311936E11,3.1625052E11,1.2139889E11,2.0593194E11,1.9774046E11,1.25736845E11,1.8715404E11,0E0,0E0,0E0,0E0,0E0,0E0,0E0,0E0,0E0,0E0,0E0,0E0,0E0,0E0,0E0,0E0,0E0,0E0,0E0,0E0,0E0,0E0,0E0,0E0,0E0,0E0,0E0,0E0,0E0,0E0,0E0,0E0],"parents":[2147483647,0,0,1,1,2,2,3,3,4,4,5,5,6,6,7,7,8,8,9,9,10,10,11,11,12,12,13,13,14,14,15,15,16,16,17,17,18,18,19,19,20,20,21,21,22,22,23,23,24,24,25,25,26,26,27,27,28,28,29,29,30,30],"right_children":[2,4,6,8,10,12,14,16,18,20,22,24,26,28,30,32,34,36,38,40,42,44,46,48,50,52,54,56,58,60,62,-1,-1,-1,-1,-1,-1,-1,-1,-1,-1,-1,-1,-1,-1,-1,-1,-1,-1,-1,-1,-1,-1,-1,-1,-1,-1,-1,-1,-1,-1,-1,-1],"split_conditions":[9.2856E2,1E0,1.99675E3,5E0,2E0,1.41667E3,-7.93E0,-8.39E0,-7.73E0,4.112E1,4.6E-1,4.276E1,5E0,4.303E1,4.281E1,3E0,5E0,2.006E3,3E0,-8.05E0,4.205E1,4.315E1,4E0,1E0,-8.17E0,-7.98E0,5.6E-1,-8.71E0,2.43929E3,2.80923E3,5E0,1.8857257E3,2.2458804E3,1.7546459E3,1.3859283E3,2.2854448E3,2.9315762E3,1.8107227E3,2.2351262E3,1.5975913E3,9.3164087E2,9.097161E3,5.2694443E3,4.41579E3,5.350281E3,3.4506438E3,4.3241255E3,7.084167E3,5.6119053E3,8.863947E3,7.2022866E3,9.916611E3,8.28142E3,7.790004E3,5.4527515E3,1.2051649E4,1.02945625E4,1.1886277E4,1.4201567E4,8.629731E3,1.0657944E4,1.1302267E4,8.931599E3],"split_indices":[2,9,2,3,9,2,6,6,6,2,14,7,17,7,7,3,17,5,4,6,2,7,3,15,6,6,14,6,2,2,17,0,0,0,0,0,0,0,0,0,0,0,0,0,0,0,0,0,0,0,0,0,0,0,0,0,0,0,0,0,0,0,0],"split_type":[0,0,0,0,0,0,0,0,0,0,0,0,0,0,0,0,0,0,0,0,0,0,0,0,0,0,0,0,0,0,0,0,0,0,0,0,0,0,0,0,0,0,0,0,0,0,0,0,0,0,0,0,0,0,0,0,0,0,0,0,0,0,0],"sum_hessian":[1.5371E4,1.225E4,3.121E3,7.561E3,4.689E3,1.63E3,1.491E3,5.041E3,2.52E3,1.585E3,3.104E3,7.04E2,9.26E2,7.55E2,7.36E2,1.754E3,3.287E3,1.533E3,9.87E2,7.6E1,1.509E3,1.899E3,1.205E3,3.32E2,3.72E2,7.34E2,1.92E2,4.66E2,2.89E2,3.66E2,3.7E2,8.77E2,8.77E2,2.644E3,6.43E2,1.181E3,3.52E2,6.39E2,3.48E2,3.7E1,3.9E1,2.48E2,1.261E3,1.248E3,6.51E2,6E2,6.05E2,1.84E2,1.48E2,1.51E2,2.21E2,4E2,3.34E2,1.44E2,4.8E1,2.11E2,2.55E2,1.19E2,1.7E2,3.01E2,6.5E1,2.98E2,7.2E1],"tree_param":{"num_deleted":"0","num_feature":"19","num_nodes":"63","size_leaf_vector":"0"}},{"base_weights":[1.1307271E5,7.647747E4,2.3594328E5,5.6192188E4,1.516048E5,1.899598E5,2.734524E5,4.0304125E4,7.520257E4,1.2544087E5,1.7718506E5,1.5604952E5,2.3200392E5,2.3381117E5,3.1650372E5,3.1118459E4,4.987511E4,6.7370375E4,8.925676E4,8.854245E4,1.3202088E5,1.9990962E5,1.6439545E5,1.25394984E5,1.723289E5,2.6396253E5,2.1558058E5,2.0756228E5,2.5892934E5,3.6599828E5,3.025555E5,1.01026764E3,1.3676263E3,1.5359482E3,2.0205184E3,2.7861116E3,2.2417026E3,4.362086E3,3.077236E3,2.8430078E3,3.684787E3,5.805282E3,4.5093545E3,6.527449E3,7.952515E3,6.989418E3,5.71812E3,3.3814187E3,5.1825713E3,5.4740093E3,7.0355156E3,1.0874066E4,9.018053E3,6.2363794E3,8.748636E3,9.156862E3,7.196871E3,1.07296455E4,8.831116E3,1.2462447E4,1.5210225E4,1.2644799E4,1.0684905E4],"categories":[],"categories_nodes":[],"categories_segments":[],"categories_sizes":[],"default_left":[0,0,0,0,0,0,0,0,0,0,0,0,0,0,0,0,0,0,0,0,0,0,0,0,0,0,0,0,0,0,0,0,0,0,0,0,0,0,0,0,0,0,0,0,0,0,0,0,0,0,0,0,0,0,0,0,0,0,0,0,0,0,0],"id":18,"left_children":[1,3,5,7,9,11,13,15,17,19,21,23,25,27,29,31,33,35,37,39,41,43,45,47,49,51,53,55,57,59,61,-1,-1,-1,-1,-1,-1,-1,-1,-1,-1,-1,-1,-1,-1,-1,-1,-1,-1,-1,-1,-1,-1,-1,-1,-1,-1,-1,-1,-1,-1,-1,-1],"loss_changes":[6.9152413E13,1.805811E13,6.0574474E12,2.8173266E12,1.673305E12,2.2422917E12,3.271943E12,4.4619583E11,4.6414378E11,2.9606753E11,3.506438E11,4.26804E11,3.3810704E11,6.3685054E11,5.7698524E11,5.7491325E10,9.3120365E10,1.4329944E11,2.7383353E11,1.9800785E10,2.6438376E11,1.3163823E11,1.8918198E11,1.3958329E11,2.2544384E11,1.0379539E11,4.1651746E11,2.447649E11,2.8780895E11,1.8804743E11,3.6282827E11,0E0,0E0,0E0,0E0,0E0,0E0,0E0,0E0,0E0,0E0,0E0,0E0,0E0,0E0,0E0,0E0,0E0,0E0,0E0,0E0,0E0,0E0,0E0,0E0,0E0,0E0,0E0,0E0,0E0,0E0,0E0,0E0],"parents":[2147483647,0,0,1,1,2,2,3,3,4,4,5,5,6,6,7,7,8,8,9,9,10,10,11,11,12,12,13,13,14,14,15,15,16,16,17,17,18,18,19,19,20,20,21,21,22,22,23,23,24,24,25,25,26,26,27,27,28,28,29,29,30,30],"right_children":[2,4,6,8,10,12,14,16,18,20,22,24,26,28,30,32,34,36,38,40,42,44,46,48,50,52,54,56,58,60,62,-1,-1,-1,-1,-1,-1,-1,-1,-1,-1,-1,-1,-1,-1,-1,-1,-1,-1,-1,-1,-1,-1,-1,-1,-1,-1,-1,-1,-1,-1,-1,-1],"split_conditions":[6.8111E2,1.6975E2,1.71834E3,1.0419E2,2.2881E2,1.9983E2,1.8789E2,6.708E1,4.203E1,2.326E1,-8.31E0,1.2041E2,1E0,2.32798E3,-8.72E0,4.823E1,3E0,-8.04E0,4.205E1,4E0,1E0,4.252E1,1E0,9.646E2,1.11117E3,-8.18E0,2E0,1E0,-8.12E0,2.47473E3,1E0,1.01026764E3,1.3676263E3,1.5359482E3,2.0205184E3,2.7861116E3,2.2417026E3,4.362086E3,3.077236E3,2.8430078E3,3.684787E3,5.805282E3,4.5093545E3,6.527449E3,7.952515E3,6.989418E3,5.71812E3,3.3814187E3,5.1825713E3,5.4740093E3,7.0355156E3,1.0874066E4,9.018053E3,6.2363794E3,8.748636E3,9.156862E3,7.196871E3,1.07296455E4,8.831116E3,1.2462447E4,1.5210225E4,1.2644799E4,1.0684905E4],"split_indices":[2,1,2,1,1,1,1,1,2,2,6,1,10,2,6,1,3,6,2,3,10,7,10,2,2,6,10,10,6,2,10,0,0,0,0,0,0,0,0,0,0,0,0,0,0,0,0,0,0,0,0,0,0,0,0,0,0,0,0,0,0,0,0],"split_type":[0,0,0,0,0,0,0,0,0,0,0,0,0,0,0,0,0,0,0,0,0,0,0,0,0,0,0,0,0,0,0,0,0,0,0,0,0,0,0,0,0,0,0,0,0,0,0,0,0,0,0,0,0,0,0,0,0,0,0,0,0,0,0],"sum_hessian":[1.5381E4,1.1852E4,3.529E3,9.333E3,2.519E3,1.587E3,1.942E3,5.085E3,4.248E3,1.247E3,1.272E3,8.8E2,7.07E2,1.013E3,9.29E2,2.596E3,2.489E3,2.73E3,1.518E3,1.9E2,1.057E3,4.55E2,8.17E2,3.07E2,5.73E2,2.37E2,4.7E2,4.98E2,5.15E2,2.01E2,7.28E2,1.522E3,1.074E3,8.44E2,1.645E3,1.332E3,1.398E3,2.88E2,1.23E3,9E1,1E2,3.28E2,7.29E2,1.66E2,2.89E2,2.55E2,5.62E2,8.9E1,2.18E2,2.3E2,3.43E2,1E2,1.37E2,1.37E2,3.33E2,1.32E2,3.66E2,2.16E2,2.99E2,1.19E2,8.2E1,2.11E2,5.17E2],"tree_param":{"num_deleted":"0","num_feature":"19","num_nodes":"63","size_leaf_vector":"0"}},{"base_weights":[1.0929769E5,7.5657516E4,2.3312908E5,5.4819445E4,1.4879489E5,2.0296353E5,2.8136375E5,3.4263176E4,6.870422E4,1.1494937E5,1.6908739E5,1.6579369E5,2.3929442E5,2.5204811E5,3.313306E5,2.6739602E4,3.9772582E4,6.158008E4,8.664104E4,7.685061E4,1.2269164E5,1.9287781E5,1.5592456E5,1.3928152E5,1.8645212E5,2.1809669E5,2.6735888E5,2.7658762E5,2.2535544E5,3.4418547E5,2.8052766E5,9.214823E2,1.1551782E3,1.769696E3,1.3550729E3,2.1437632E3,2.744969E3,4.101565E3,2.8076172E3,2.152336E3,3.1007705E3,5.3964985E3,4.1517993E3,8.198323E3,6.5908267E3,5.0122417E3,6.2518013E3,4.1324937E3,5.652051E3,6.055646E3,7.632777E3,7.084709E3,8.664557E3,1.0687782E4,8.470251E3,8.970979E3,1.1191834E4,8.867831E3,6.5848286E3,1.3452879E4,1.1173305E4,9.56615E3,1.1282139E4],"categories":[],"categories_nodes":[],"categories_segments":[],"categories_sizes":[],"default_left":[0,0,0,0,0,0,0,0,0,0,0,0,0,0,0,0,0,0,0,0,0,0,0,0,0,0,0,0,0,0,0,0,0,0,0,0,0,0,0,0,0,0,0,0,0,0,0,0,0,0,0,0,0,0,0,0,0,0,0,0,0,0,0],"id":19,"left_children":[1,3,5,7,9,11,13,15,17,19,21,23,25,27,29,31,33,35,37,39,41,43,45,47,49,51,53,55,57,59,61,-1,-1,-1,-1,-1,-1,-1,-1,-1,-1,-1,-1,-1,-1,-1,-1,-1,-1,-1,-1,-1,-1,-1,-1,-1,-1,-1,-1,-1,-1,-1,-1],"loss_changes":[6.4414795E13,1.8531521E13,4.77342E12,2.7005676E12,1.8406745E12,2.7243263E12,1.8108488E12,1.5761827E11,7.1880933E11,2.9316822E11,5.099351E11,5.366654E11,5.772117E11,4.8925717E11,2.488942E11,1.3318619E10,5.665325E10,1.9383661E11,4.1890926E11,1.8358927E10,1.9951675E11,2.3591073E11,2.6496467E11,1.4754618E11,2.3005757E11,2.13834E11,3.0753895E11,3.136144E11,2.1703636E11,2.1733206E11,6.2652416E9,0E0,0E0,0E0,0E0,0E0,0E0,0E0,0E0,0E0,0E0,0E0,0E0,0E0,0E0,0E0,0E0,0E0,0E0,0E0,0E0,0E0,0E0,0E0,0E0,0E0,0E0,0E0,0E0,0E0,0E0,0E0,0E0],"parents":[2147483647,0,0,1,1,2,2,3,3,4,4,5,5,6,6,7,7,8,8,9,9,10,10,11,11,12,12,13,13,14,14,15,15,16,16,17,17,18,18,19,19,20,20,21,21,22,22,23,23,24,24,25,25,26,26,27,27,28,28,29,29,30,30],"right_children":[2,4,6,8,10,12,14,16,18,20,22,24,26,28,30,32,34,36,38,40,42,44,46,48,50,52,54,56,58,60,62,-1,-1,-1,-1,-1,-1,-1,-1,-1,-1,-1,-1,-1,-1,-1,-1,-1,-1,-1,-1,-1,-1,-1,-1,-1,-1,-1,-1,-1,-1,-1,-1],"split_conditions":[8.5816E2,1.6975E2,2.1512E3,8.521E1,2.1378E2,1.8006E2,2.1862E2,4.922E1,1E0,1E0,-8.35E0,1.45196E3,1.57908E3,-7.93E0,5E0,5E0,-8.45E0,1.349E2,2E0,4.229E1,2E0,2E0,2.4414E2,1.1028E2,1.2568E2,4.251E1,-7.57E0,4.263E1,5E0,-7.42E0,4.299E1,9.214823E2,1.1551782E3,1.769696E3,1.3550729E3,2.1437632E3,2.744969E3,4.101565E3,2.8076172E3,2.152336E3,3.1007705E3,5.3964985E3,4.1517993E3,8.198323E3,6.5908267E3,5.0122417E3,6.2518013E3,4.1324937E3,5.652051E3,6.055646E3,7.632777E3,7.084709E3,8.664557E3,1.0687782E4,8.470251E3,8.970979E3,1.1191834E4,8.867831E3,6.5848286E3,1.3452879E4,1.1173305E4,9.56615E3,1.1282139E4],"split_indices":[2,1,2,1,1,1,1,1,18,9,6,2,2,6,17,3,6,1,9,7,9,9,1,1,1,7,6,7,17,6,7,0,0,0,0,0,0,0,0,0,0,0,0,0,0,0,0,0,0,0,0,0,0,0,0,0,0,0,0,0,0,0,0],"split_type":[0,0,0,0,0,0,0,0,0,0,0,0,0,0,0,0,0,0,0,0,0,0,0,0,0,0,0,0,0,0,0,0,0,0,0,0,0,0,0,0,0,0,0,0,0,0,0,0,0,0,0,0,0,0,0,0,0,0,0,0,0,0,0],"sum_hessian":[1.5465E4,1.2162E4,3.303E3,9.466E3,2.696E3,2.034E3,1.269E3,3.817E3,5.649E3,1.012E3,1.684E3,1.007E3,1.027E3,8.02E2,4.67E2,1.615E3,2.202E3,4.045E3,1.604E3,1.72E2,8.4E2,5.97E2,1.087E3,4.43E2,5.64E2,5.88E2,4.39E2,4.15E2,3.87E2,3.7E2,9.7E1,1.107E3,5.08E2,6.64E2,1.538E3,3.048E3,9.97E2,5.16E2,1.088E3,4.5E1,1.27E2,2.78E2,5.62E2,2.16E2,3.81E2,3.95E2,6.92E2,1.38E2,3.05E2,2.5E2,3.14E2,2.06E2,3.82E2,2.91E2,1.48E2,1.7E2,2.45E2,3.04E2,8.3E1,2.63E2,1.07E2,5.1E1,4.6E1],"tree_param":{"num_deleted":"0","num_feature":"19","num_nodes":"63","size_leaf_vector":"0"}},{"base_weights":[1.04673E5,7.283903E4,2.2562455E5,5.5640414E4,1.5573298E5,1.8881262E5,2.6239994E5,3.895007E4,7.580643E4,1.3698086E5,1.738499E5,1.582832E5,2.2432483E5,2.1536883E5,2.9373428E5,3.1368062E4,5.169493E4,6.3884855E4,9.390648E4,1.9641002E3,1.398317E5,1.9321128E5,1.6323875E5,1.3714828E5,1.7650978E5,1.8830412E5,2.3932411E5,1.9285831E5,2.3343605E5,2.7268444E5,3.2242853E5,1.1134135E3,1.9673036E3,1.5763998E3,2.102702E3,2.510771E3,1.8511566E3,4.314902E3,3.1101675E3,6.0677803E3,4.774854E3,1.0561942E4,6.6853457E3,6.373349E3,5.0291895E3,5.510791E3,3.7553215E3,5.6842896E3,7.1751343E3,6.53221E3,8.490426E3,8.1550356E3,9.54614E3,7.450033E3,5.8185864E3,9.380092E3,7.622008E3,9.5145E3,1.0886408E4,1.2481214E4,1.0064607E4],"categories":[],"categories_nodes":[],"categories_segments":[],"categories_sizes":[],"default_left":[0,0,0,0,0,0,0,0,0,0,0,0,0,0,0,0,0,0,0,0,0,0,0,0,0,0,0,0,0,0,0,0,0,0,0,0,0,0,0,0,0,0,0,0,0,0,0,0,0,0,0,0,0,0,0,0,0,0,0,0,0],"id":20,"left_children":[1,3,5,7,9,11,13,15,17,19,21,23,25,27,29,31,33,35,37,-1,39,41,43,45,47,49,51,53,55,57,59,-1,-1,-1,-1,-1,-1,-1,-1,-1,-1,-1,-1,-1,-1,-1,-1,-1,-1,-1,-1,-1,-1,-1,-1,-1,-1,-1,-1,-1,-1],"loss_changes":[5.9030333E13,1.7301865E13,4.2957726E12,3.382421E12,6.946103E11,1.7123666E12,2.3158682E12,5.307745E11,9.788541E11,2.4240141E11,1.990365E11,3.177395E11,3.72148E11,2.3419526E11,5.2636837E11,1.071566E11,9.048005E10,1.365917E11,4.060768E11,0E0,2.5394833E11,4.282762E11,1.4070841E11,1.498908E11,1.6087882E11,8.861988E10,1.4692437E11,5.8456015E10,1.5738287E11,1.4394432E11,2.1586405E11,0E0,0E0,0E0,0E0,0E0,0E0,0E0,0E0,0E0,0E0,0E0,0E0,0E0,0E0,0E0,0E0,0E0,0E0,0E0,0E0,0E0,0E0,0E0,0E0,0E0,0E0,0E0,0E0,0E0,0E0],"parents":[2147483647,0,0,1,1,2,2,3,3,4,4,5,5,6,6,7,7,8,8,9,9,10,10,11,11,12,12,13,13,14,14,15,15,16,16,17,17,18,18,20,20,21,21,22,22,23,23,24,24,25,25,26,26,27,27,28,28,29,29,30,30],"right_children":[2,4,6,8,10,12,14,16,18,20,22,24,26,28,30,32,34,36,38,-1,40,42,44,46,48,50,52,54,56,58,60,-1,-1,-1,-1,-1,-1,-1,-1,-1,-1,-1,-1,-1,-1,-1,-1,-1,-1,-1,-1,-1,-1,-1,-1,-1,-1,-1,-1,-1,-1],"split_conditions":[9.0029E2,1.9299E2,1.833E2,1.0904E2,2.4414E2,1.99675E3,1.71834E3,7.97E1,1E0,1E0,2E0,1.45196E3,1.1319E2,2.3226E2,2.47473E3,1E0,3E0,5E0,2E0,1.9641002E3,2E0,4.205E1,5E0,5.4E-1,1.2568E2,2.73572E3,2.43929E3,5E0,1E0,2.4607E2,5E0,1.1134135E3,1.9673036E3,1.5763998E3,2.102702E3,2.510771E3,1.8511566E3,4.314902E3,3.1101675E3,6.0677803E3,4.774854E3,1.0561942E4,6.6853457E3,6.373349E3,5.0291895E3,5.510791E3,3.7553215E3,5.6842896E3,7.1751343E3,6.53221E3,8.490426E3,8.1550356E3,9.54614E3,7.450033E3,5.8185864E3,9.380092E3,7.622008E3,9.5145E3,1.0886408E4,1.2481214E4,1.0064607E4],"split_indices":[2,1,1,1,1,2,2,1,9,9,9,2,1,1,2,18,3,17,9,0,9,2,17,14,1,2,2,17,15,1,17,0,0,0,0,0,0,0,0,0,0,0,0,0,0,0,0,0,0,0,0,0,0,0,0,0,0,0,0,0,0],"split_type":[0,0,0,0,0,0,0,0,0,0,0,0,0,0,0,0,0,0,0,0,0,0,0,0,0,0,0,0,0,0,0,0,0,0,0,0,0,0,0,0,0,0,0,0,0,0,0,0,0,0,0,0,0,0,0,0,0,0,0,0,0],"sum_hessian":[1.5333E4,1.2139E4,3.194E3,1.0054E4,2.085E3,1.598E3,1.596E3,5.502E3,4.552E3,1.027E3,1.058E3,8.61E2,7.37E2,6.4E2,9.56E2,3.451E3,2.051E3,2.746E3,1.806E3,3.4E1,9.93E2,3.71E2,6.87E2,4.01E2,4.6E2,2.19E2,5.18E2,2.88E2,3.52E2,5.55E2,4.01E2,3.233E3,2.18E2,6.97E2,1.354E3,2.192E3,5.54E2,5.76E2,1.23E3,3.28E2,6.65E2,4.7E1,3.24E2,5.33E2,1.54E2,3.07E2,9.4E1,1.89E2,2.71E2,1.68E2,5.1E1,2.41E2,2.77E2,2.38E2,5E1,2.11E2,1.41E2,3.02E2,2.53E2,3.19E2,8.2E1],"tree_param":{"num_deleted":"0","num_feature":"19","num_nodes":"61","size_leaf_vector":"0"}},{"base_weights":[1.00910195E5,7.0777125E4,2.2012694E5,5.3648035E4,1.4986102E5,1.8616972E5,2.5648917E5,3.645492E4,7.176015E4,1.3166188E5,1.6753786E5,1.6162244E5,2.3070316E5,2.2875495E5,2.9449712E5,3.0122309E4,4.8711664E4,6.0236957E4,8.915699E4,1.5572725E5,1.21654266E5,1.8215038E5,1.469772E5,1.3507948E5,1.7617158E5,2.60786E5,2.0710295E5,2.5623494E5,2.0941495E5,3.4702953E5,2.7909206E5,8.918545E2,1.3060831E3,1.7740774E3,3.047624E3,2.5150073E3,1.9776396E3,4.1324434E3,2.8984666E3,7.0472476E3,5.456191E3,4.8126265E3,3.4218586E3,8.011509E3,6.2871895E3,6.1429653E3,5.1416562E3,5.457392E3,3.6469155E3,7.701618E3,6.0751826E3,8.043404E3,1.01784E4,9.325777E3,7.0005254E3,8.451936E3,1.056983E4,7.05293E3,8.703256E3,1.2019586E4,1.3811301E4,1.2050982E4,9.692061E3],"categories":[],"categories_nodes":[],"categories_segments":[],"categories_sizes":[],"default_left":[0,0,0,0,0,0,0,0,0,0,0,0,0,0,0,0,0,0,0,0,0,0,0,0,0,0,0,0,0,0,0,0,0,0,0,0,0,0,0,0,0,0,0,0,0,0,0,0,0,0,0,0,0,0,0,0,0,0,0,0,0,0,0],"id":21,"left_children":[1,3,5,7,9,11,13,15,17,19,21,23,25,27,29,31,33,35,37,39,41,43,45,47,49,51,53,55,57,59,61,-1,-1,-1,-1,-1,-1,-1,-1,-1,-1,-1,-1,-1,-1,-1,-1,-1,-1,-1,-1,-1,-1,-1,-1,-1,-1,-1,-1,-1,-1,-1,-1],"loss_changes":[5.534416E13,1.6658106E13,3.8104245E12,3.1472547E12,6.914981E11,1.7377547E12,1.5413396E12,4.0186518E11,9.8387676E11,2.494038E11,3.1741025E11,3.875453E11,3.7350487E11,4.307676E11,4.536643E11,1.0422662E11,5.942988E10,1.5225953E11,4.7887103E11,8.080222E10,1.6695322E11,2.6168053E11,6.073352E10,1.5010785E11,2.4705709E11,1.059628E11,2.3918753E11,2.506621E11,2.239234E11,1.1356078E10,3.6085275E11,0E0,0E0,0E0,0E0,0E0,0E0,0E0,0E0,0E0,0E0,0E0,0E0,0E0,0E0,0E0,0E0,0E0,0E0,0E0,0E0,0E0,0E0,0E0,0E0,0E0,0E0,0E0,0E0,0E0,0E0,0E0,0E0],"parents":[2147483647,0,0,1,1,2,2,3,3,4,4,5,5,6,6,7,7,8,8,9,9,10,10,11,11,12,12,13,13,14,14,15,15,16,16,17,17,18,18,19,19,20,20,21,21,22,22,23,23,24,24,25,25,26,26,27,27,28,28,29,29,30,30],"right_children":[2,4,6,8,10,12,14,16,18,20,22,24,26,28,30,32,34,36,38,40,42,44,46,48,50,52,54,56,58,60,62,-1,-1,-1,-1,-1,-1,-1,-1,-1,-1,-1,-1,-1,-1,-1,-1,-1,-1,-1,-1,-1,-1,-1,-1,-1,-1,-1,-1,-1,-1,-1,-1],"split_conditions":[9.646E2,1.9299E2,1.8789E2,1.0495E2,2.4414E2,2.25532E3,2.1512E3,7.97E1,1E0,-8.53E0,-7.79E0,1.45196E3,-8.12E0,-8.16E0,-8.74E0,4.823E1,4.6478E2,-8.03E0,2E0,4.205E1,5E0,1E0,1E0,5.4E-1,1E0,1.0904E2,1E0,1.55422E3,2.5365E2,2.54254E3,1E0,8.918545E2,1.3060831E3,1.7740774E3,3.047624E3,2.5150073E3,1.9776396E3,4.1324434E3,2.8984666E3,7.0472476E3,5.456191E3,4.8126265E3,3.4218586E3,8.011509E3,6.2871895E3,6.1429653E3,5.1416562E3,5.457392E3,3.6469155E3,7.701618E3,6.0751826E3,8.043404E3,1.01784E4,9.325777E3,7.0005254E3,8.451936E3,1.056983E4,7.05293E3,8.703256E3,1.2019586E4,1.3811301E4,1.2050982E4,9.692061E3],"split_indices":[2,1,1,1,1,2,2,1,9,6,6,2,6,6,6,1,2,6,9,2,17,10,10,14,10,1,10,2,1,2,10,0,0,0,0,0,0,0,0,0,0,0,0,0,0,0,0,0,0,0,0,0,0,0,0,0,0,0,0,0,0,0,0],"split_type":[0,0,0,0,0,0,0,0,0,0,0,0,0,0,0,0,0,0,0,0,0,0,0,0,0,0,0,0,0,0,0,0,0,0,0,0,0,0,0,0,0,0,0,0,0,0,0,0,0,0,0,0,0,0,0,0,0,0,0,0,0,0,0],"sum_hessian":[1.5408E4,1.23E4,3.108E3,1.0111E4,2.189E3,1.609E3,1.499E3,5.188E3,4.923E3,1.081E3,1.108E3,1.039E3,5.7E2,8.69E2,6.3E2,3.422E3,1.766E3,2.963E3,1.96E3,3.15E2,7.66E2,6.45E2,4.63E2,3.7E2,6.69E2,2.48E2,3.22E2,3.56E2,5.13E2,1.4E2,4.9E2,1.528E3,1.894E3,1.713E3,5.3E1,1.457E3,1.506E3,6.66E2,1.294E3,6.5E1,2.5E2,6.08E2,1.58E2,1.82E2,4.63E2,1.49E2,3.14E2,2.81E2,8.9E1,1.96E2,4.73E2,5.7E1,1.91E2,9.6E1,2.26E2,1.76E2,1.8E2,2.85E2,2.28E2,7.4E1,6.6E1,1.42E2,3.48E2],"tree_param":{"num_deleted":"0","num_feature":"19","num_nodes":"63","size_leaf_vector":"0"}},{"base_weights":[9.707255E4,6.758333E4,2.0980597E5,4.8717895E4,1.3230434E5,1.8008008E5,2.5092119E5,3.057878E4,6.149278E4,1.02015945E5,1.4963144E5,1.5152436E5,2.1536686E5,2.182521E5,2.8873994E5,2.3935908E4,3.6053207E4,5.4498652E4,7.679762E4,7.002931E4,1.0971881E5,1.577643E5,1.1938565E5,1.2490508E5,1.6645419E5,2.52434E5,1.9955239E5,2.2810102E5,1.7554881E5,2.6551278E5,3.194335E5,8.716215E2,1.848088E3,1.0557507E3,1.4806906E3,1.8553789E3,2.3519617E3,2.1579006E3,3.3078357E3,1.8234475E3,2.8390718E3,4.7495767E3,3.7399907E3,6.7882017E3,5.481193E3,3.6539858E3,4.872067E3,3.8320122E3,5.2439175E3,7.4256357E3,5.701127E3,8.834675E3,1.1028289E4,5.6790703E3,8.053236E3,7.921321E3,9.572336E3,5.7118774E3,7.2257344E3,1.1236744E4,9.282765E3,1.3385183E4,1.114841E4],"categories":[],"categories_nodes":[],"categories_segments":[],"categories_sizes":[],"default_left":[0,0,0,0,0,0,0,0,0,0,0,0,0,0,0,0,0,0,0,0,0,0,0,0,0,0,0,0,0,0,0,0,0,0,0,0,0,0,0,0,0,0,0,0,0,0,0,0,0,0,0,0,0,0,0,0,0,0,0,0,0,0,0],"id":22,"left_children":[1,3,5,7,9,11,13,15,17,19,21,23,25,27,29,31,33,35,37,39,41,43,45,47,49,51,53,55,57,59,61,-1,-1,-1,-1,-1,-1,-1,-1,-1,-1,-1,-1,-1,-1,-1,-1,-1,-1,-1,-1,-1,-1,-1,-1,-1,-1,-1,-1,-1,-1,-1,-1],"loss_changes":[5.11997E13,1.4905231E13,3.8767365E12,2.1899971E12,1.4372286E12,1.8506737E12,1.6169713E12,1.416343E11,5.913864E11,2.4302322E11,4.1984983E11,3.962233E11,4.56248E11,2.7964473E11,3.9139567E11,2.2996845E10,6.067716E10,1.5219766E11,3.9186543E11,2.3623827E10,1.2616257E11,3.409256E11,8.364543E10,1.2181727E11,2.7055358E11,1.214272E11,4.4105413E11,2.2744452E11,3.9033766E10,1.6462643E11,1.4806522E11,0E0,0E0,0E0,0E0,0E0,0E0,0E0,0E0,0E0,0E0,0E0,0E0,0E0,0E0,0E0,0E0,0E0,0E0,0E0,0E0,0E0,0E0,0E0,0E0,0E0,0E0,0E0,0E0,0E0,0E0,0E0,0E0],"parents":[2147483647,0,0,1,1,2,2,3,3,4,4,5,5,6,6,7,7,8,8,9,9,10,10,11,11,12,12,13,13,14,14,15,15,16,16,17,17,18,18,19,19,20,20,21,21,22,22,23,23,24,24,25,25,26,26,27,27,28,28,29,29,30,30],"right_children":[2,4,6,8,10,12,14,16,18,20,22,24,26,28,30,32,34,36,38,40,42,44,46,48,50,52,54,56,58,60,62,-1,-1,-1,-1,-1,-1,-1,-1,-1,-1,-1,-1,-1,-1,-1,-1,-1,-1,-1,-1,-1,-1,-1,-1,-1,-1,-1,-1,-1,-1,-1,-1],"split_conditions":[9.0029E2,1.6834E2,2.0501E2,8.661E1,2.105E2,2.03564E3,1.99675E3,5.27E1,1E0,1E0,5E0,1.2534E2,1E0,5E0,4.3E1,2.762E1,3E0,1.2569E2,1.2568E2,4.218E1,2E0,1E0,2.4038E2,1.3905E3,1E0,2.73572E3,2E0,2.697E2,2.517E2,1E0,2E0,8.716215E2,1.848088E3,1.0557507E3,1.4806906E3,1.8553789E3,2.3519617E3,2.1579006E3,3.3078357E3,1.8234475E3,2.8390718E3,4.7495767E3,3.7399907E3,6.7882017E3,5.481193E3,3.6539858E3,4.872067E3,3.8320122E3,5.2439175E3,7.4256357E3,5.701127E3,8.834675E3,1.1028289E4,5.6790703E3,8.053236E3,7.921321E3,9.572336E3,5.7118774E3,7.2257344E3,1.1236744E4,9.282765E3,1.3385183E4,1.114841E4],"split_indices":[2,1,1,1,1,2,2,1,9,9,17,1,10,17,7,12,3,1,1,7,9,10,1,2,10,2,10,1,1,10,17,0,0,0,0,0,0,0,0,0,0,0,0,0,0,0,0,0,0,0,0,0,0,0,0,0,0,0,0,0,0,0,0],"split_type":[0,0,0,0,0,0,0,0,0,0,0,0,0,0,0,0,0,0,0,0,0,0,0,0,0,0,0,0,0,0,0,0,0,0,0,0,0,0,0,0,0,0,0,0,0,0,0,0,0,0,0,0,0,0,0,0,0,0,0,0,0,0,0],"sum_hessian":[1.5403E4,1.221E4,3.193E3,9.455E3,2.755E3,1.855E3,1.338E3,3.908E3,5.547E3,1.004E3,1.751E3,1.027E3,8.28E2,7.2E2,6.18E2,1.767E3,2.141E3,3.809E3,1.738E3,1.96E2,8.08E2,1.378E3,3.73E2,3.71E2,6.56E2,2.45E2,5.83E2,5.83E2,1.37E2,3.55E2,2.63E2,1.733E3,3.4E1,7E2,1.441E3,2.482E3,1.327E3,6.8E2,1.058E3,4.6E1,1.5E2,2.73E2,5.35E2,4.1E2,9.68E2,1.33E2,2.4E2,1.58E2,2.13E2,1.86E2,4.7E2,1.85E2,6E1,1.55E2,4.28E2,3.85E2,1.98E2,6.5E1,7.2E1,1.06E2,2.49E2,8.4E1,1.79E2],"tree_param":{"num_deleted":"0","num_feature":"19","num_nodes":"63","size_leaf_vector":"0"}},{"base_weights":[9.3160695E4,4.6082832E4,1.4456173E5,4.3088527E4,1.547602E5,1.1505404E5,1.8080817E5,2.9872416E4,5.7753812E4,1.1577174E5,1.8667894E5,9.057521E4,1.30327336E5,1.6402319E5,1.9916562E5,2.4015553E4,3.7038176E4,5.5881062E4,1.20202914E5,5.3096865E3,3.1724968E3,8.261567E3,1.6303277E5,8.5192164E4,1.1634441E5,1.384499E5,1.02945555E5,1.906518E5,1.5172111E5,1.7777944E5,2.1674738E5,7.314259E2,9.7360974E2,1.2067825E3,1.6843706E3,2.4858489E3,1.8989205E3,3.8797998E3,5.566784E3,7.0896226E3,5.0620107E3,3.731789E3,2.923917E3,4.9675E3,3.6850625E3,6.478334E3,4.9329736E3,4.7873647E3,3.4405151E3,7.491333E3,5.611879E3,4.109284E3,6.2834336E3,7.645991E3,6.148446E3,8.88829E3,7.415139E3],"categories":[],"categories_nodes":[],"categories_segments":[],"categories_sizes":[],"default_left":[0,0,0,0,0,0,0,0,0,0,0,0,0,0,0,0,0,0,0,0,0,0,0,0,0,0,0,0,0,0,0,0,0,0,0,0,0,0,0,0,0,0,0,0,0,0,0,0,0,0,0,0,0,0,0,0,0],"id":23,"left_children":[1,3,5,7,9,11,13,15,17,19,21,23,25,27,29,31,33,35,37,-1,-1,-1,39,41,43,45,47,49,51,53,55,-1,-1,-1,-1,-1,-1,-1,-1,-1,-1,-1,-1,-1,-1,-1,-1,-1,-1,-1,-1,-1,-1,-1,-1,-1,-1],"loss_changes":[3.7306774E13,2.6152157E12,7.871031E12,1.5172811E12,2.556465E11,1.5127345E12,9.997543E11,1.7245798E11,4.302643E11,7.379498E10,7.686639E10,2.1109827E11,5.4804034E11,5.499991E11,5.7026596E11,2.0899824E10,6.940603E10,1.8933193E11,4.1319137E10,0E0,0E0,0E0,3.8687474E10,1.2502696E11,7.196272E10,3.9338797E11,1.4816798E11,2.1239955E11,8.264876E11,2.2903416E11,3.055928E11,0E0,0E0,0E0,0E0,0E0,0E0,0E0,0E0,0E0,0E0,0E0,0E0,0E0,0E0,0E0,0E0,0E0,0E0,0E0,0E0,0E0,0E0,0E0,0E0,0E0,0E0],"parents":[2147483647,0,0,1,1,2,2,3,3,4,4,5,5,6,6,7,7,8,8,9,9,10,10,11,11,12,12,13,13,14,14,15,15,16,16,17,17,18,18,22,22,23,23,24,24,25,25,26,26,27,27,28,28,29,29,30,30],"right_children":[2,4,6,8,10,12,14,16,18,20,22,24,26,28,30,32,34,36,38,-1,-1,-1,40,42,44,46,48,50,52,54,56,-1,-1,-1,-1,-1,-1,-1,-1,-1,-1,-1,-1,-1,-1,-1,-1,-1,-1,-1,-1,-1,-1,-1,-1,-1,-1],"split_conditions":[1E0,3.382E1,1.9654E2,9.545E1,1.7244E2,1.2568E2,2.4974E2,6.248E1,1.9117E2,-8E0,-8.39E0,4.344E1,-7.32E0,1E0,4.274E1,3.005E1,1.994E3,1E0,1.9589E4,5.3096865E3,3.1724968E3,8.261567E3,1.517E1,1E0,-8.15E0,1.2569E2,1E0,5E0,2E0,1E0,-8.13E0,7.314259E2,9.7360974E2,1.2067825E3,1.6843706E3,2.4858489E3,1.8989205E3,3.8797998E3,5.566784E3,7.0896226E3,5.0620107E3,3.731789E3,2.923917E3,4.9675E3,3.6850625E3,6.478334E3,4.9329736E3,4.7873647E3,3.4405151E3,7.491333E3,5.611879E3,4.109284E3,6.2834336E3,7.645991E3,6.148446E3,8.88829E3,7.415139E3],"split_indices":[18,12,1,1,1,1,1,1,1,6,6,7,6,10,7,1,5,10,0,0,0,0,8,10,6,1,10,17,10,10,6,0,0,0,0,0,0,0,0,0,0,0,0,0,0,0,0,0,0,0,0,0,0,0,0,0,0],"split_type":[0,0,0,0,0,0,0,0,0,0,0,0,0,0,0,0,0,0,0,0,0,0,0,0,0,0,0,0,0,0,0,0,0,0,0,0,0,0,0,0,0,0,0,0,0,0,0,0,0,0,0,0,0,0,0,0,0],"sum_hessian":[1.5418E4,8.048E3,7.37E3,7.833E3,2.15E2,4.064E3,3.306E3,4.121E3,3.712E3,9.8E1,1.17E2,1.563E3,2.501E3,1.73E3,1.576E3,2.269E3,1.852E3,3.605E3,1.07E2,5.1E1,4.7E1,4.5E1,7.2E1,1.295E3,2.68E2,1.927E3,5.74E2,5.44E2,1.186E3,7.14E2,8.62E2,7.48E2,1.521E3,1.187E3,6.65E2,1.111E3,2.494E3,7.1E1,3.6E1,3.4E1,3.8E1,3.94E2,9.01E2,1.33E2,1.35E2,2.73E2,1.654E3,1.65E2,4.09E2,4.28E2,1.16E2,3.48E2,8.38E2,2.21E2,4.93E2,3.79E2,4.83E2],"tree_param":{"num_deleted":"0","num_feature":"19","num_nodes":"57","size_leaf_vector":"0"}},{"base_weights":[9.032581E4,6.1218508E4,1.934866E5,4.004463E4,9.7706555E4,1.6339675E5,2.3083114E5,3.6468863E4,4.7310457E4,1.1728383E5,8.918061E4,1.4072617E5,1.786249E5,2.6861706E5,2.159842E5,4.3765605E4,3.328465E4,4.2530812E4,5.4477133E4,1.6181169E5,1.0311854E5,1.0532518E5,8.1971445E4,1.6714648E5,1.2897844E5,1.886132E5,1.4132152E5,2.4502823E5,2.9768512E5,1.6055614E5,2.363819E5,1.7315054E3,1.1958658E3,8.602185E2,1.4036913E3,1.6629213E3,1.2731648E3,2.3405952E3,1.895944E3,7.827357E2,7.6782207E3,3.0149646E3,4.3713066E3,4.302259E3,3.306889E3,1.8805128E3,3.520692E3,6.8573477E3,5.2827944E3,3.6610425E3,5.221805E3,5.8678564E3,7.455301E3,5.7227983E3,3.8163354E3,8.280167E3,9.755494E3,1.1478818E4,9.435725E3,6.429322E3,4.2803896E3,7.950243E3,9.822098E3],"categories":[],"categories_nodes":[],"categories_segments":[],"categories_sizes":[],"default_left":[0,0,0,0,0,0,0,0,0,0,0,0,0,0,0,0,0,0,0,0,0,0,0,0,0,0,0,0,0,0,0,0,0,0,0,0,0,0,0,0,0,0,0,0,0,0,0,0,0,0,0,0,0,0,0,0,0,0,0,0,0,0,0],"id":24,"left_children":[1,3,5,7,9,11,13,15,17,19,21,23,25,27,29,31,33,35,37,39,41,43,45,47,49,51,53,55,57,59,61,-1,-1,-1,-1,-1,-1,-1,-1,-1,-1,-1,-1,-1,-1,-1,-1,-1,-1,-1,-1,-1,-1,-1,-1,-1,-1,-1,-1,-1,-1,-1,-1],"loss_changes":[4.6110802E13,9.253058E12,3.7755447E12,1.9596627E11,7.2807245E11,6.321152E11,8.112707E11,1.1726173E11,8.4231586E10,8.307679E11,3.5186645E11,2.2190804E11,4.0119357E11,2.4709693E11,1.2040421E12,4.848563E10,1.5891353E11,2.5886458E10,2.7833401E10,2.0037842E12,3.150541E11,1.536384E11,8.389038E11,8.4004045E10,1.73813E11,2.9972706E11,1.0569803E11,5.698591E10,4.2358276E10,1.5104947E11,4.6312246E11,0E0,0E0,0E0,0E0,0E0,0E0,0E0,0E0,0E0,0E0,0E0,0E0,0E0,0E0,0E0,0E0,0E0,0E0,0E0,0E0,0E0,0E0,0E0,0E0,0E0,0E0,0E0,0E0,0E0,0E0,0E0,0E0],"parents":[2147483647,0,0,1,1,2,2,3,3,4,4,5,5,6,6,7,7,8,8,9,9,10,10,11,11,12,12,13,13,14,14,15,15,16,16,17,17,18,18,19,19,20,20,21,21,22,22,23,23,24,24,25,25,26,26,27,27,28,28,29,29,30,30],"right_children":[2,4,6,8,10,12,14,16,18,20,22,24,26,28,30,32,34,36,38,40,42,44,46,48,50,52,54,56,58,60,62,-1,-1,-1,-1,-1,-1,-1,-1,-1,-1,-1,-1,-1,-1,-1,-1,-1,-1,-1,-1,-1,-1,-1,-1,-1,-1,-1,-1,-1,-1,-1,-1],"split_conditions":[7.9336E2,1E0,1.99675E3,5E0,2E0,1.30469E3,1E0,1E0,1.991E3,4.333E1,1E0,1E0,5E0,2.54254E3,2E0,5E0,2E0,5E0,1E0,4.112E1,3.6404E2,4.5E-1,2E0,1E0,2E0,4.234E1,5.6E-1,4.273E1,5E0,5E0,4.29E1,1.7315054E3,1.1958658E3,8.602185E2,1.4036913E3,1.6629213E3,1.2731648E3,2.3405952E3,1.895944E3,7.827357E2,7.6782207E3,3.0149646E3,4.3713066E3,4.302259E3,3.306889E3,1.8805128E3,3.520692E3,6.8573477E3,5.2827944E3,3.6610425E3,5.221805E3,5.8678564E3,7.455301E3,5.7227983E3,3.8163354E3,8.280167E3,9.755494E3,1.1478818E4,9.435725E3,6.429322E3,4.2803896E3,7.950243E3,9.822098E3],"split_indices":[2,9,2,3,9,2,10,10,5,2,10,10,17,2,10,17,10,17,10,2,2,14,10,15,10,7,14,7,17,17,7,0,0,0,0,0,0,0,0,0,0,0,0,0,0,0,0,0,0,0,0,0,0,0,0,0,0,0,0,0,0,0,0],"split_type":[0,0,0,0,0,0,0,0,0,0,0,0,0,0,0,0,0,0,0,0,0,0,0,0,0,0,0,0,0,0,0,0,0,0,0,0,0,0,0,0,0,0,0,0,0,0,0,0,0,0,0,0,0,0,0,0,0,0,0,0,0,0,0],"sum_hessian":[1.5358E4,1.1979E4,3.379E3,7.581E3,4.398E3,1.873E3,1.506E3,5.083E3,2.498E3,1.332E3,3.066E3,7.55E2,1.118E3,4.22E2,1.084E3,1.542E3,3.541E3,1.501E3,9.97E2,3.2E2,1.012E3,9.44E2,2.122E3,2.3E2,5.25E2,8.8E2,2.38E2,2.36E2,1.86E2,2.93E2,7.91E2,1.246E3,2.96E2,1.074E3,2.467E3,1.192E3,3.09E2,2.93E2,7.04E2,7.7E1,2.43E2,3.99E2,6.13E2,5.8E2,3.64E2,6.08E2,1.514E3,1.35E2,9.5E1,1.43E2,3.82E2,2.43E2,6.37E2,1.79E2,5.9E1,1.05E2,1.31E2,1.47E2,3.9E1,2.3E2,6.3E1,4.35E2,3.56E2],"tree_param":{"num_deleted":"0","num_feature":"19","num_nodes":"63","size_leaf_vector":"0"}},{"base_weights":[8.645051E4,5.9754285E4,1.8892248E5,4.286131E4,1.1750003E5,1.6533283E5,2.3236672E5,2.9860111E4,5.6407047E4,9.5797E4,1.3885786E5,1.4586217E5,2.098415E5,2.045303E5,2.702235E5,2.4624682E4,3.880103E4,5.087656E4,6.913891E4,5.864922E4,1.0224151E5,1.596108E5,1.26773734E5,1.1816351E5,1.5943045E5,2.2364988E5,1.685273E5,2.2355017E5,1.7703138E5,2.8660947E5,2.2361316E5,8.7763135E2,1.7574877E3,1.1204181E3,1.6110825E3,2.2079045E3,1.684957E3,3.6799458E3,2.35015E3,1.5281869E3,2.4363037E3,4.0830173E3,2.848165E3,6.760956E3,5.4268896E3,4.374393E3,5.3998096E3,3.3490127E3,4.939716E3,6.610244E3,5.091698E3,6.777041E3,8.688041E3,4.8082783E3,6.8068555E3,8.745214E3,6.421959E3,5.296113E3,7.0686074E3,1.1174961E4,8.627198E3,9.80453E3,7.6409014E3],"categories":[],"categories_nodes":[],"categories_segments":[],"categories_sizes":[],"default_left":[0,0,0,0,0,0,0,0,0,0,0,0,0,0,0,0,0,0,0,0,0,0,0,0,0,0,0,0,0,0,0,0,0,0,0,0,0,0,0,0,0,0,0,0,0,0,0,0,0,0,0,0,0,0,0,0,0,0,0,0,0,0,0],"id":25,"left_children":[1,3,5,7,9,11,13,15,17,19,21,23,25,27,29,31,33,35,37,39,41,43,45,47,49,51,53,55,57,59,61,-1,-1,-1,-1,-1,-1,-1,-1,-1,-1,-1,-1,-1,-1,-1,-1,-1,-1,-1,-1,-1,-1,-1,-1,-1,-1,-1,-1,-1,-1,-1,-1],"loss_changes":[4.2161756E13,1.1926982E13,3.2422222E12,1.6654774E12,1.275081E12,1.7730246E12,1.1474903E12,2.2551226E11,3.242092E11,3.2556712E11,3.3764986E11,5.3000903E11,3.3598053E11,3.1555636E11,3.2345424E11,7.151367E10,6.871266E10,1.5147886E11,2.4648509E11,2.2903718E10,2.1926773E11,1.3989891E11,1.3966193E11,1.8793366E11,3.8219756E11,1.6502909E11,7.619163E10,1.9728328E11,1.0378019E11,2.1841838E11,6.0038316E10,0E0,0E0,0E0,0E0,0E0,0E0,0E0,0E0,0E0,0E0,0E0,0E0,0E0,0E0,0E0,0E0,0E0,0E0,0E0,0E0,0E0,0E0,0E0,0E0,0E0,0E0,0E0,0E0,0E0,0E0,0E0,0E0],"parents":[2147483647,0,0,1,1,2,2,3,3,4,4,5,5,6,6,7,7,8,8,9,9,10,10,11,11,12,12,13,13,14,14,15,15,16,16,17,17,18,18,19,19,20,20,21,21,22,22,23,23,24,24,25,25,26,26,27,27,28,28,29,29,30,30],"right_children":[2,4,6,8,10,12,14,16,18,20,22,24,26,28,30,32,34,36,38,40,42,44,46,48,50,52,54,56,58,60,62,-1,-1,-1,-1,-1,-1,-1,-1,-1,-1,-1,-1,-1,-1,-1,-1,-1,-1,-1,-1,-1,-1,-1,-1,-1,-1,-1,-1,-1,-1,-1,-1],"split_conditions":[9.0029E2,1.6834E2,2.1862E2,9.994E1,2.2881E2,2.32798E3,2.1512E3,7.383E1,1E0,1E0,-8.33E0,1.2534E2,-7.44E0,-7.74E0,-7.39E0,5E0,3E0,-8.3E0,4.205E1,4.231E1,-7.29E0,2E0,4.315E1,1.41667E3,-7.85E0,1.1028E2,1.1719E2,5E0,4.238E1,5E0,1E0,8.7763135E2,1.7574877E3,1.1204181E3,1.6110825E3,2.2079045E3,1.684957E3,3.6799458E3,2.35015E3,1.5281869E3,2.4363037E3,4.0830173E3,2.848165E3,6.760956E3,5.4268896E3,4.374393E3,5.3998096E3,3.3490127E3,4.939716E3,6.610244E3,5.091698E3,6.777041E3,8.688041E3,4.8082783E3,6.8068555E3,8.745214E3,6.421959E3,5.296113E3,7.0686074E3,1.1174961E4,8.627198E3,9.80453E3,7.6409014E3],"split_indices":[2,1,1,1,1,2,2,1,18,9,6,1,6,6,6,18,3,6,2,7,6,9,7,2,6,1,1,17,7,17,10,0,0,0,0,0,0,0,0,0,0,0,0,0,0,0,0,0,0,0,0,0,0,0,0,0,0,0,0,0,0,0,0],"split_type":[0,0,0,0,0,0,0,0,0,0,0,0,0,0,0,0,0,0,0,0,0,0,0,0,0,0,0,0,0,0,0,0,0,0,0,0,0,0,0,0,0,0,0,0,0,0,0,0,0,0,0,0,0,0,0,0,0,0,0,0,0,0,0],"sum_hessian":[1.5414E4,1.2229E4,3.185E3,9.462E3,2.767E3,2.066E3,1.119E3,4.829E3,4.633E3,1.374E3,1.393E3,1.439E3,6.27E2,6.47E2,4.72E2,3.047E3,1.782E3,3.232E3,1.401E3,2.04E2,1.17E3,5.1E2,8.83E2,4.75E2,9.64E2,4.68E2,1.59E2,3.8E2,2.67E2,3.47E2,1.25E2,2.913E3,1.34E2,6.07E2,1.175E3,1.289E3,1.943E3,2.34E2,1.167E3,5.8E1,1.46E2,9.06E2,2.64E2,1.94E2,3.16E2,5.89E2,2.94E2,1.63E2,3.12E2,5.33E2,4.31E2,9.1E1,3.77E2,4.4E1,1.15E2,3.09E2,7.1E1,7.4E1,1.93E2,2.76E2,7.1E1,3.7E1,8.8E1],"tree_param":{"num_deleted":"0","num_feature":"19","num_nodes":"63","size_leaf_vector":"0"}},{"base_weights":[8.304892E4,5.8047914E4,1.8378028E5,4.11095E4,1.144735E5,1.4880669E5,2.142302E5,2.8945348E4,5.566689E4,8.738758E4,1.3144077E5,1.19008805E5,1.7593719E5,1.9360492E5,2.5481922E5,2.3753818E4,3.9271973E4,6.781255E4,5.03863E4,1.05125086E5,7.9622555E4,1.4815733E5,1.1843042E5,1.4896086E5,1.0412316E5,1.9379152E5,1.5307288E5,2.1916444E5,1.7521516E5,2.6847925E5,2.1425006E5,6.927206E2,1.01426044E3,1.5763612E3,1.1001195E3,2.1952473E3,3.0559658E3,1.0906066E3,2.1975444E3,4.4552812E3,3.3673625E3,1.9036263E3,3.4520703E3,5.841928E3,4.301195E3,3.7726055E3,4.778313E3,6.414642E3,4.8719272E3,2.5094104E3,4.453611E3,6.751521E3,8.670012E3,7.0973916E3,5.173446E3,7.133628E3,8.901395E3,5.991872E3,7.435051E3,1.0472098E4,8.314886E3,9.313285E3,7.395075E3],"categories":[],"categories_nodes":[],"categories_segments":[],"categories_sizes":[],"default_left":[0,0,0,0,0,0,0,0,0,0,0,0,0,0,0,0,0,0,0,0,0,0,0,0,0,0,0,0,0,0,0,0,0,0,0,0,0,0,0,0,0,0,0,0,0,0,0,0,0,0,0,0,0,0,0,0,0,0,0,0,0,0,0],"id":26,"left_children":[1,3,5,7,9,11,13,15,17,19,21,23,25,27,29,31,33,35,37,39,41,43,45,47,49,51,53,55,57,59,61,-1,-1,-1,-1,-1,-1,-1,-1,-1,-1,-1,-1,-1,-1,-1,-1,-1,-1,-1,-1,-1,-1,-1,-1,-1,-1,-1,-1,-1,-1,-1,-1],"loss_changes":[3.8874068E13,1.1819599E13,3.250292E12,1.6838841E12,1.3056365E12,1.1442837E12,1.343746E12,2.7740498E11,2.7574927E11,1.4682738E11,3.713385E11,2.9570892E11,2.878341E11,4.896808E11,2.7147633E11,6.172954E10,5.1073253E10,1.6263519E11,5.4984756E11,6.489768E10,2.8429412E11,2.0855547E11,1.6031364E11,8.2100355E10,2.5651472E11,1.7818662E11,1.5965513E11,2.2242814E11,2.0362926E11,2.0047934E11,5.026611E10,0E0,0E0,0E0,0E0,0E0,0E0,0E0,0E0,0E0,0E0,0E0,0E0,0E0,0E0,0E0,0E0,0E0,0E0,0E0,0E0,0E0,0E0,0E0,0E0,0E0,0E0,0E0,0E0,0E0,0E0,0E0,0E0],"parents":[2147483647,0,0,1,1,2,2,3,3,4,4,5,5,6,6,7,7,8,8,9,9,10,10,11,11,12,12,13,13,14,14,15,15,16,16,17,17,18,18,19,19,20,20,21,21,22,22,23,23,24,24,25,25,26,26,27,27,28,28,29,29,30,30],"right_children":[2,4,6,8,10,12,14,16,18,20,22,24,26,28,30,32,34,36,38,40,42,44,46,48,50,52,54,56,58,60,62,-1,-1,-1,-1,-1,-1,-1,-1,-1,-1,-1,-1,-1,-1,-1,-1,-1,-1,-1,-1,-1,-1,-1,-1,-1,-1,-1,-1,-1,-1,-1,-1],"split_conditions":[9.646E2,1.6834E2,1.7522E2,1.0419E2,2.1378E2,1.8865E3,2.32798E3,7.97E1,1E0,1E0,-8.18E0,1E0,-7.8E0,-8.16E0,-7.39E0,4.466E1,-7.34E0,4.112E1,2E0,-8.05E0,2E0,5E0,2.4414E2,-8.2E0,2E0,2.73572E3,1E0,1.55422E3,2.5557E2,5E0,1E0,6.927206E2,1.01426044E3,1.5763612E3,1.1001195E3,2.1952473E3,3.0559658E3,1.0906066E3,2.1975444E3,4.4552812E3,3.3673625E3,1.9036263E3,3.4520703E3,5.841928E3,4.301195E3,3.7726055E3,4.778313E3,6.414642E3,4.8719272E3,2.5094104E3,4.453611E3,6.751521E3,8.670012E3,7.0973916E3,5.173446E3,7.133628E3,8.901395E3,5.991872E3,7.435051E3,1.0472098E4,8.314886E3,9.313285E3,7.395075E3],"split_indices":[2,1,1,1,1,2,2,1,10,10,6,10,6,6,6,1,6,2,10,6,10,17,1,6,10,2,10,2,1,17,10,0,0,0,0,0,0,0,0,0,0,0,0,0,0,0,0,0,0,0,0,0,0,0,0,0,0,0,0,0,0,0,0],"split_type":[0,0,0,0,0,0,0,0,0,0,0,0,0,0,0,0,0,0,0,0,0,0,0,0,0,0,0,0,0,0,0,0,0,0,0,0,0,0,0,0,0,0,0,0,0,0,0,0,0,0,0,0,0,0,0,0,0,0,0,0,0,0,0],"sum_hessian":[1.5438E4,1.2369E4,3.069E3,9.514E3,2.855E3,1.43E3,1.639E3,5.184E3,4.33E3,1.101E3,1.754E3,6.83E2,7.47E2,1.089E3,5.5E2,3.451E3,1.733E3,1.31E3,3.02E3,3.33E2,7.68E2,7.65E2,9.89E2,2.25E2,4.58E2,4.17E2,3.3E2,4.53E2,6.36E2,4.09E2,1.41E2,1.397E3,2.054E3,1.315E3,4.18E2,8.11E2,4.99E2,8.79E2,2.141E3,1.65E2,1.68E2,2.43E2,5.25E2,6.01E2,1.64E2,3.66E2,6.23E2,9.6E1,1.29E2,1.37E2,3.21E2,3.19E2,9.8E1,8.8E1,2.42E2,1.93E2,2.6E2,4.05E2,2.31E2,3.16E2,9.3E1,4E1,1.01E2],"tree_param":{"num_deleted":"0","num_feature":"19","num_nodes":"63","size_leaf_vector":"0"}},{"base_weights":[7.9982586E4,5.2986707E4,1.6605206E5,3.8292527E4,1.0269356E5,1.2728713E5,1.938024E5,2.4371734E4,4.8476816E4,8.045928E4,1.2249455E5,1.0265698E5,1.6105867E5,1.6631038E5,2.3157825E5,1.8429309E4,2.8558926E4,5.7119594E4,4.276946E4,5.6037992E4,8.824524E4,1.4404398E5,1.13051016E5,7.993346E4,1.1515574E5,1.8819572E5,1.4728494E5,1.48119E5,1.8854323E5,2.4954103E5,1.9894053E5,6.291966E2,8.8111676E2,8.4096387E2,1.2017134E3,1.9246455E3,2.6501436E3,1.413139E3,1.9503868E3,2.3417583E3,1.7261317E3,4.0856565E3,2.898577E3,5.8372925E3,4.321036E3,2.8733396E3,4.730455E3,3.986298E3,2.4286853E3,4.6811963E3,2.7693142E3,6.524042E3,7.92099E3,3.973161E3,6.161966E3,6.650415E3,5.053998E3,5.679948E3,7.439295E3,9.740887E3,7.5262827E3,6.4809062E3,8.303436E3],"categories":[],"categories_nodes":[],"categories_segments":[],"categories_sizes":[],"default_left":[0,0,0,0,0,0,0,0,0,0,0,0,0,0,0,0,0,0,0,0,0,0,0,0,0,0,0,0,0,0,0,0,0,0,0,0,0,0,0,0,0,0,0,0,0,0,0,0,0,0,0,0,0,0,0,0,0,0,0,0,0,0,0],"id":27,"left_children":[1,3,5,7,9,11,13,15,17,19,21,23,25,27,29,31,33,35,37,39,41,43,45,47,49,51,53,55,57,59,61,-1,-1,-1,-1,-1,-1,-1,-1,-1,-1,-1,-1,-1,-1,-1,-1,-1,-1,-1,-1,-1,-1,-1,-1,-1,-1,-1,-1,-1,-1,-1,-1],"loss_changes":[3.5776113E13,8.560625E12,3.940624E12,1.2822994E12,1.171748E12,1.2676277E12,2.2015818E12,9.485576E10,2.5633699E11,2.3698971E11,2.7814317E11,2.4727205E11,2.2546796E11,4.8582204E11,4.98946E11,1.2429001E10,4.940366E10,1.5613978E11,1.4457189E11,1.865692E10,2.0833947E11,1.4237145E11,4.9002683E11,1.22592035E11,2.4188499E11,4.676911E10,3.0902793E11,2.4436015E11,2.083919E11,3.015495E11,1.7055823E11,0E0,0E0,0E0,0E0,0E0,0E0,0E0,0E0,0E0,0E0,0E0,0E0,0E0,0E0,0E0,0E0,0E0,0E0,0E0,0E0,0E0,0E0,0E0,0E0,0E0,0E0,0E0,0E0,0E0,0E0,0E0,0E0],"parents":[2147483647,0,0,1,1,2,2,3,3,4,4,5,5,6,6,7,7,8,8,9,9,10,10,11,11,12,12,13,13,14,14,15,15,16,16,17,17,18,18,19,19,20,20,21,21,22,22,23,23,24,24,25,25,26,26,27,27,28,28,29,29,30,30],"right_children":[2,4,6,8,10,12,14,16,18,20,22,24,26,28,30,32,34,36,38,40,42,44,46,48,50,52,54,56,58,60,62,-1,-1,-1,-1,-1,-1,-1,-1,-1,-1,-1,-1,-1,-1,-1,-1,-1,-1,-1,-1,-1,-1,-1,-1,-1,-1,-1,-1,-1,-1,-1,-1],"split_conditions":[5.744E2,1.6035E2,1.57908E3,8.521E1,2.1691E2,2.0501E2,2.0167E2,4.823E1,-8.31E0,1E0,1E0,1.2385E2,1E0,2.32798E3,-7.6E0,2.006E3,1.972E3,1E0,5E0,-7.81E0,1E0,4.8E-1,2E0,1E0,5E0,1.22708E3,2E0,1E0,1.0904E2,5E0,2.29072E3,6.291966E2,8.8111676E2,8.4096387E2,1.2017134E3,1.9246455E3,2.6501436E3,1.413139E3,1.9503868E3,2.3417583E3,1.7261317E3,4.0856565E3,2.898577E3,5.8372925E3,4.321036E3,2.8733396E3,4.730455E3,3.986298E3,2.4286853E3,4.6811963E3,2.7693142E3,6.524042E3,7.92099E3,3.973161E3,6.161966E3,6.650415E3,5.053998E3,5.679948E3,7.439295E3,9.740887E3,7.5262827E3,6.4809062E3,8.303436E3],"split_indices":[2,1,2,1,1,1,1,1,6,9,10,1,10,2,6,5,5,9,3,6,10,14,10,10,17,2,10,10,1,17,2,0,0,0,0,0,0,0,0,0,0,0,0,0,0,0,0,0,0,0,0,0,0,0,0,0,0,0,0,0,0,0,0],"split_type":[0,0,0,0,0,0,0,0,0,0,0,0,0,0,0,0,0,0,0,0,0,0,0,0,0,0,0,0,0,0,0,0,0,0,0,0,0,0,0,0,0,0,0,0,0,0,0,0,0,0,0,0,0,0,0,0,0,0,0,0,0,0,0],"sum_hessian":[1.5399E4,1.1723E4,3.676E3,9.049E3,2.674E3,1.535E3,2.141E3,3.824E3,5.225E3,1.261E3,1.413E3,8.89E2,6.46E2,1.241E3,9E2,1.582E3,2.242E3,2.076E3,3.149E3,3.06E2,9.55E2,4.28E2,9.85E2,3.17E2,5.72E2,2.15E2,4.31E2,6.85E2,5.56E2,5.78E2,3.22E2,1.227E3,3.55E2,8.63E2,1.379E3,1.501E3,5.75E2,2.102E3,1.047E3,1.77E2,1.29E2,3.09E2,6.46E2,2.92E2,1.36E2,2.78E2,7.07E2,1.1E2,2.07E2,4.53E2,1.19E2,1.44E2,7.1E1,1.35E2,2.96E2,1.95E2,4.9E2,1.35E2,4.21E2,4.58E2,1.2E2,1.61E2,1.61E2],"tree_param":{"num_deleted":"0","num_feature":"19","num_nodes":"63","size_leaf_vector":"0"}},{"base_weights":[7.7142086E4,5.0210758E4,1.5881039E5,3.4726082E4,8.281242E4,1.2252982E5,1.8634627E5,3.380635E4,1.10267195E5,1.121346E5,7.5347E4,1.4656094E5,1.1146999E5,1.71635E5,2.1920002E5,4.104499E4,3.0646781E4,5.999411E3,2.8592654E3,7.285867E4,1.5041E5,8.033778E4,5.6953293E4,1.6172077E5,1.2404819E5,7.5347586E4,1.25101625E5,2.044227E5,1.583284E5,2.3903889E5,1.8500302E5,1.8657471E3,1.366344E3,7.5423926E2,1.3006378E3,